tree
version=v2
num_class=3
num_tree_per_iteration=3
label_index=0
max_feature_idx=99
objective=multiclass num_class:3
feature_names=0 1 2 3 4 5 6 7 8 9 10 11 12 13 14 15 16 17 18 19 20 21 22 23 24 25 26 27 28 29 30 31 32 33 34 35 36 37 38 39 40 41 42 43 44 45 46 47 48 49 50 51 52 53 54 55 56 57 58 59 60 61 62 63 64 65 66 67 68 69 70 71 72 73 74 75 76 77 78 79 80 81 82 83 84 85 86 87 88 89 90 91 92 93 94 95 96 97 98 99
feature_infos=[0:0.51492675518858277] [0:0.63422152943580035] [0:0.44333291102034206] [0:0.75901768694666982] [0:0.7272734824278978] [0:0.80860339511392909] [0:0.65697127622085028] [0:0.9926536553276667] [0:0.63669165613683887] [0:0.72565024077134455] [0:1] [0:0.70855548007026448] [0:0.80347939301469895] [0:0.78951451096812764] [0:0.7552151373466498] [0:0.74871879954156528] [0:0.85024147359636471] [0:0.90373340749207387] [0:1] [0:0.78325014788737524] [0:0.70758036434275884] [0:1] [0:0.78259127404551743] [0:1] [0:0.64771926357004628] [0:0.65967440325074145] [0:0.73651141793252872] [0:0.56636539110394635] [0:0.89009749032283891] [0:1] [0:0.7470669778893102] [0:0.84649714923666375] [0:0.92856639168986088] [0:0.58484733588556115] [0:0.90525621631262165] [0:0.60695549364421431] [0:0.45764590569934016] [0:0.73712268611204679] [0:0.50259389753160233] [0:0.72634341290874205] [0:0.99388694284547519] [0:0.76817153535133875] [0:0.9759682565149822] [0:0.92402782912951742] [0:0.90733631651630187] [0:0.80898893838367392] [0:1] [0:0.73295602184122355] [0:0.81422866967266094] [0:0.74599841865365091] [0:0.61183210038692626] [0:1] [0:0.68799326753580636] [0:0.83334909129512547] [0:0.51786655090186628] [0:0.51781821000503603] [0:0.57788790201430229] [0:1] [0:0.71274901821144709] [0:0.84033526684011983] [0:0.96002384443805355] [0:0.55357651320351398] [0:0.67136869117251541] [0:0.353174141396015] [0:0.79496456323764941] [0:0.89492651274147661] [0:0.44459814147235166] [0:0.81810514921139443] [0:0.67364174689937673] [0:0.59152780048851916] [0:0.55906457036248236] [0:0.83598701725797253] [0:0.73057447926749886] [0:0.73298955840702096] [0:0.71576301801331133] [0:0.66015074028731646] [0:0.71948075894051811] [0:0.78512578113364462] [0:0.80639131851428814] [0:0.7910783427651652] [0:0.63005321050714358] [0:0.80601663871530793] [0:0.67307709689934425] [0:0.70875981302024926] [0:0.69286842003636262] [0:0.70960372577379771] [0:0.45041208346172801] [0:0.55254397442463998] [0:0.75849667235315232] [0:0.99983655157354079] [0:0.68049547128953614] [0:0.81407387291853262] [0:0.70132672678433983] [0:0.53331512079373355] [0:0.7866648671214912] [0:0.73291198281728642] [0:1] [0:1] [0:0.65180076071681692] [0:1]
tree_sizes=2591 2560 2534 2671 2644 2628 2644 2631 2604 2649 2642 2631 2658 2623 2617 2655 2632 2624 2654 2634 2613 2654 2640 2605 2651 2629 2612 2668 2628 2623 2654 2617 2612 2644 2622 2613 2658 2656 2628 2660 2632 2622 2656 2644 2643 2677 2622 2623 2662 2620 2613 2655 2636 2622 2648 2643 2634 2646 2618 2635 2652 2622 2629 2666 2629 2610 2653 2645 2604 2658 2620 2608 2649 2620 2623 2648 2634 2636 2653 2628 2617 2636 2623 2630 2662 2629 2606 2647 2662 2625 2659 2638 2610 2663 2659 2624 2650 2638 2613 2655 2642 2630 2663 2619 2630 2668 2637 2623 2663 2625 2633 2667 2635 2616 2662 2630 2634 2660 2636 2632 2656 2635 2614 2678 2628 2636 2659 2612 2618 2670 2625 2623 2674 2623 2627 2662 2631 2618 2655 2636 2637 2664 2635 2610 2667 2619 2611 2647 2633 2637 2654 2631 2631 2661 2635 2652 2650 2628 2628 2671 2648 2622 2657 2624 2616 2640 2631 2629 2653 2640 2630 2670 2614 2622 2658 2629 2638 2671 2646 2641 2642 2640 2641 2648 2638 2628 2670 2634 2655 2653 2623 2625 2669 2628 2630 2657 2637 2658 2640 2621 2624 2646 2622 2643 2660 2645 2634 2667 2628 2630 2668 2623 2653 2682 2650 2631 2641 2631 2622 2641 2630 2617 2659 2653 2627 2681 2629 2612 2664 2645 2647 2664 2639 2621 2673 2628 2630 2653 2644 2627 2646 2627 2614 2654 2646 2618 2661 2635 2643 2670 2615 2632 2660 2643 2613 2665 2623 2625 2652 2650 2627 2648 2631 2631 2648 2609 2636 2664 2628 2641 2657 2599 2630 2665 2640 2618 2671 2627 2631 2642 2651 2619 2652 2626 2624 2646 2642 2621 2659 2632 2649 2666 2621 2631 2654 2635 2625 2667 2623 2640

Tree=0
num_leaves=31
num_cat=0
split_feature=75 7 12 90 48 43 94 6 8 25 92 36 62 92 29 19 45 58 19 18 19 94 62 92 60 62 92 67 77 92
split_gain=199.146 34.7231 30.9132 24.8085 22.7553 15.524 14.3112 14.0886 9.93705 9.22066 9.06997 9.0044 9.79065 8.82086 7.91062 7.44872 7.3697 7.31657 9.02138 7.23327 7.22085 8.45239 9.81485 8.14029 7.65366 11.2203 6.80208 7.97915 6.61228 10.5111
threshold=1.0000000180025095e-35 0.23416774233643625 0.10262170390836076 0.016059990005969128 0.099998302894154248 0.025945889822128646 0.11165922569044397 0.1366796687680443 0.12464309456972746 0.071832291583511301 0.11228052489309891 0.14116943787096473 0.04264285777623248 0.04981869799836245 0.035913947878329487 0.071444815901853836 0.035619343450145481 0.068833963668025203 0.10711170585266999 0.41904837134352485 0.095949637621641673 0.11295999256528844 0.056224714538251445 0.063943101948959205 0.021520177259779588 0.18095111857625121 0.061065309119676538 0.037206508707477791 0.26208152264838541 0.044464095882123411
decision_type=2 2 2 2 2 2 2 2 2 2 2 2 2 2 2 2 2 2 2 2 2 2 2 2 2 2 2 2 2 2
left_child=1 4 3 7 5 11 26 8 10 17 15 12 -1 -6 -8 -2 -11 18 -5 -7 21 23 -23 -9 25 -22 -4 -28 -19 -30
right_child=2 -3 6 9 13 19 14 20 -10 16 -12 -13 -14 -15 -16 -17 -18 28 -20 -21 24 22 -24 -25 -26 -27 27 -29 29 -31
leaf_value=-0.35359859477272776 -0.35152374431136385 -0.35017223635412176 -0.35224593758414635 -0.35045989960407087 -0.35268243997230103 -0.352322534659055 -0.35160916866170722 -0.35249828386661647 -0.35288119374183274 -0.35172144839845909 -0.3499184060610086 -0.35777830644738096 -0.35242393202051464 -0.34972232916188911 -0.35370682983035323 -0.35029286856015218 -0.35002983517826491 -0.34946075114476083 -0.35338403089855697 -0.35846357100658499 -0.35512800703727426 -0.34990698621831556 -0.3548620270270213 -0.35065665877270807 -0.34952692938233582 -0.34867259097379427 -0.351262657146031 -0.34855534402921123 -0.35198825864282246 -0.34986399891125713
leaf_count=11892 3468 1019 1240 2776 381 4159 617 934 558 1682 2193 107 2001 628 1409 1779 966 4721 270 37 466 122 361 1467 88 67 1357 315 748 2170
internal_value=0 -0.118521 0.0805179 0.102755 -0.133312 -0.145865 -0.0313081 0.0500153 0.0858515 0.148188 0.100816 -0.170619 -0.166886 0.0922902 -0.130917 0.0656627 0.0660803 0.168458 0.103775 -0.0630716 -0.0317699 0.00104002 -0.183759 0.0387983 -0.181842 -0.251518 0.0381964 0.102389 0.194088 0.135363
internal_count=49998 20224 29774 24836 19205 18196 4938 11503 7998 13333 7440 14000 13893 1009 2026 5247 2648 10685 3046 4196 3505 2884 483 2401 621 533 2912 1672 7639 2918
shrinkage=1


Tree=1
num_leaves=31
num_cat=0
split_feature=17 11 92 42 33 49 65 33 84 84 75 49 17 50 54 45 12 75 37 85 95 50 54 89 17 32 37 95 99 65
split_gain=84.4716 56.8061 25.4638 26.0173 19.5914 17.0404 18.5312 16.7047 15.3159 15.1622 14.4547 13.0789 11.1929 10.6031 10.2635 9.87011 9.55883 8.79161 8.47912 7.88197 7.65867 9.72679 7.84173 7.42366 10.6005 7.55552 7.08275 8.23274 6.85695 6.24481
threshold=0.40234364787587723 0.030322617079430538 0.067889967560347597 0.10248525302793285 0.052191234988372207 0.19469464868173866 0.19684100302340304 0.084668706353011061 0.052273548637589227 0.049776511767707886 0.13482539902336407 0.091297037866047662 0.15156149739846722 0.22144512744316625 0.096071245381482248 0.040557472123364975 0.069942686133102977 0.076838324661836335 0.081370459057501079 0.078549960825492801 0.047419688416514338 0.052029132518712447 0.078372094668614209 0.2143921081429018 1.0000000180025095e-35 0.28754825104575193 0.025995632721509298 0.19416265609577327 0.58778912878905543 0.069347927173271401
decision_type=2 2 2 2 2 2 2 2 2 2 2 2 2 2 2 2 2 2 2 2 2 2 2 2 2 2 2 2 2 2
left_child=1 2 3 5 -5 8 10 26 12 -6 -7 14 18 19 15 -3 -11 -15 23 20 -9 22 -22 24 -1 -25 27 -4 -14 -24
right_child=-2 11 7 4 9 6 -8 13 -10 16 -12 -13 28 17 -16 -17 -18 -19 -20 -21 21 -23 29 25 -26 -27 -28 -29 -30 -31
leaf_value=-1.7765388803952205 -1.7747580507885636 -1.7791550427462277 -1.7802196418849376 -1.7781434682443544 -1.7770905578997542 -1.7765395640122641 -1.7803701170704214 -1.7789995193494819 -1.7800164515782704 -1.7711823416363057 -1.7716818143733244 -1.7778540225157582 -1.7768733607625098 -1.7781571247779946 -1.780864918216519 -1.7806950050443695 -1.7793077395847785 -1.7707544685301051 -1.7775832351930203 -1.7800591620715982 -1.7765403515192324 -1.778529503723866 -1.7696002429085309 -1.7784440540290383 -1.7794688097556648 -1.7760347874581843 -1.77902482388325 -1.7756723063895721 -1.7786549135700938 -1.7780704976034989
leaf_count=470 1901 4498 4216 704 350 742 288 649 1845 489 308 977 2961 103 4128 2208 55 120 3199 554 299 389 131 6933 4853 483 4931 134 1038 42
internal_value=0 -0.0154747 0.0215418 0.0557376 0.287588 0.0395454 0.245157 -0.051505 0.0267633 0.470816 0.360484 -0.129086 0.0420159 0.0925774 -0.147942 -0.102005 0.664553 0.470636 0.0195635 0.048784 0.119224 0.234471 0.412444 -0.0022888 -0.0559866 0.0362875 -0.0870969 -0.1425 0.131113 0.718894
internal_count=49998 48097 36286 24718 1598 23120 1338 11568 21782 894 1050 11811 19937 2287 10834 6706 544 223 15938 2064 1510 861 472 12739 5323 7416 9281 4350 3999 173
shrinkage=1


Tree=2
num_leaves=31
num_cat=0
split_feature=2 68 63 49 76 20 58 11 9 97 91 88 23 83 18 23 37 50 3 35 76 91 3 39 63 50 76 35 35 68
split_gain=128.34 72.4394 45.1499 23.2573 21.6193 20.5059 24.8398 26.408 18.755 15.2297 14.3761 14.7649 14.101 13.6637 19.2207 14.828 13.6285 11.2392 9.56573 9.492 9.33994 8.65092 10.5145 7.87675 7.52105 8.85228 7.50457 8.77007 6.92431 6.67039
threshold=0.032900262810757044 0.023809482694607829 0.018235749040598288 0.11931457989022624 0.067553540076382965 0.023658136607703405 0.077522519181095817 0.091204102366980414 0.063208649739723052 0.15690075807952744 0.040325908831505698 0.086517377335200249 1.0000000180025095e-35 0.038077935594519545 0.45522005670097265 0.21446578489867871 0.031704574874530551 0.056396696998282245 0.017823911517975844 0.09727530396194993 0.022797471923469214 0.045632736100906228 0.10412017046186516 0.092863572517360951 0.061419553778181986 0.095297270337901474 0.084981732990843425 0.033117924557115749 0.044265654051332211 0.11607929372018001
decision_type=2 2 2 2 2 2 2 2 2 2 2 2 2 2 2 2 2 2 2 2 2 2 2 2 2 2 2 2 2 2
left_child=1 2 3 5 -5 6 9 20 -4 13 11 -6 18 14 -1 23 -9 -18 19 24 -8 22 -22 -15 -10 -26 -3 29 -27 -28
right_child=-2 26 8 4 10 -7 7 16 12 -11 -12 -13 -14 15 -16 -17 17 -19 -20 -21 21 -23 -24 -25 25 28 27 -29 -30 -31
leaf_value=-2.0584703685150783 -2.0602572414838942 -2.060170863268997 -2.0593473410847731 -2.0570917977646248 -2.0461048962299522 -2.0588381358758112 -2.0568689916478133 -2.0564454925692526 -2.0592017589071996 -2.0583096552718301 -2.0560778936912856 -2.0601382566844739 -2.0594252270633424 -2.0564799420986386 -2.0449244707684757 -2.0523375065096574 -2.0476582889699748 -2.0555465003376487 -2.0581021209706587 -2.0601071909932225 -2.0522507076542849 -2.0569647750426552 -2.0584308879227851 -2.0590583811277483 -2.0551154684969455 -2.0487794024391426 -2.0564311661475783 -2.0603139860689152 -2.0576897137752064 -2.0593165934515039
leaf_count=2398 10587 4308 5296 385 265 2246 2174 188 99 3521 144 33 744 11140 30 363 350 123 563 115 691 468 148 548 473 229 829 882 49 609
internal_value=0 0.0556511 0.0964984 0.139552 0.485612 0.127469 0.147029 0.294737 -0.046939 0.11278 0.796038 1.05067 0.113502 0.143138 -0.00187102 0.172313 0.678364 0.865023 0.229098 0.355232 0.218783 0.359529 0.486501 0.158616 0.431695 0.502691 -0.1461 -0.0484427 0.796375 0.0536139
internal_count=49998 39411 32783 25215 827 24388 22142 4142 7568 18000 442 298 2272 14479 2428 12051 661 473 1528 965 3481 1307 839 11688 850 751 6628 2320 278 1438
shrinkage=1


Tree=3
num_leaves=31
num_cat=0
split_feature=16 93 90 83 93 77 27 90 83 27 98 98 90 62 49 93 69 58 77 63 15 90 49 87 49 49 63 57 67 83
split_gain=198.621 73.8445 37.9172 35.9379 24.0485 19.4261 16.6937 16.0118 18.1865 14.6136 14.1062 12.8369 12.5647 11.4502 11.1402 9.90168 9.12213 12.0292 10.1644 9.92403 8.71486 8.67421 8.20894 8.19202 7.74087 7.64246 7.09614 7.07979 6.74968 6.70871
threshold=0.021267463992479512 1.0000000180025095e-35 1.0000000180025095e-35 0.3017570110236108 0.023205740880577443 0.16947104620118239 0.048705624900725698 1.0000000180025095e-35 0.050456642431200405 0.050029440539376462 0.080234640805652888 0.46057388489767453 0.021263452566003458 0.090922023657259876 0.088757876590468618 0.042326942710662729 0.024885000309688089 0.24515833556533237 0.24232874134870572 0.048379250830228954 0.061569224176404147 1.0000000180025095e-35 0.06479070586269052 0.35321045526862482 0.21562257285343736 0.07724758625367073 0.097615550627480049 0.33636974676963521 0.085878285913994087 0.024001712273622151
decision_type=2 2 2 2 2 2 2 2 2 2 2 2 2 2 2 2 2 2 2 2 2 2 2 2 2 2 2 2 2 2
left_child=1 3 15 7 6 -4 10 8 11 -9 -2 16 22 23 20 -3 17 18 19 27 -12 -6 -8 -10 -15 -19 -23 -1 -7 -20
right_child=4 2 5 -5 21 28 12 9 13 -11 14 -13 -14 24 -16 -17 -18 25 29 -21 -22 26 -24 -25 -26 -27 -28 -29 -30 -31
leaf_value=-0.00051725959474339315 -6.5604669316245647e-05 0.0029981138344937737 0.0019157435560399462 -0.0029385588239107027 -0.00091169741441357035 -8.3188272836402238e-05 0.00097634697653320543 -0.00094988227679974825 -0.0012858680901036083 -0.0039104624752194696 0.0021845236344617412 -0.0077194770842502793 -0.0035433315678861871 0.00011838234374871663 -0.00059599336769039881 -0.0043923609490210073 -0.0016251324294766461 0.0027476247724988125 0.00067737940439471323 0.0014676916568339253 0.00092039462587860084 0.0022313620324131088 -0.0037533785102389361 -0.0042394664325471247 -0.0026095964239242343 -0.00091643097002453908 0.00042905878110088814 0.0010498820882231411 0.001958996249941637 -0.0015801997576799689
leaf_count=3354 2011 42 3149 2224 232 2762 518 841 10926 766 3114 45 323 2222 581 392 945 551 385 1070 2289 6990 96 222 271 175 572 860 442 1628
internal_value=0 -0.0691543 0.0749145 -0.10604 0.137641 0.105359 0.0826677 -0.0886894 -0.0780302 -0.237651 0.105595 -0.0240271 -0.11202 -0.11365 0.143258 -0.362829 -0.0194471 -0.00242355 -0.0214119 0.0142847 0.165152 0.200507 0.0190216 -0.13483 -0.0187134 0.186326 0.209571 -0.0195853 0.0203449 -0.114739
internal_count=49998 33272 6787 26485 16726 6353 8932 24261 22654 1607 7995 9013 937 13641 5984 434 8968 8023 7297 5284 5403 7794 614 11148 2493 726 7562 4214 3204 2013
shrinkage=0.01


Tree=4
num_leaves=31
num_cat=0
split_feature=73 4 89 89 29 34 33 1 85 48 53 15 89 58 49 47 49 58 49 76 34 71 49 33 58 29 15 89 89 95
split_gain=79.5274 51.8222 29.7382 29.8134 16.5432 18.5489 20.8059 20.2089 12.1311 11.2142 10.8048 9.5107 9.33976 8.68113 7.41784 7.2199 11.7674 7.27321 6.95544 9.52182 9.42673 8.47612 6.82653 7.03414 6.73952 8.23425 6.33872 7.54129 7.39981 6.20248
threshold=1.0000000180025095e-35 0.15867451501624455 0.5733558899949448 0.57842986598461876 0.3188226121663596 0.038389934530036897 0.059159956273301569 0.1103403243872798 0.057230482199851961 0.066981597287818662 0.037939467354547694 0.37390049833310496 1.0000000180025095e-35 0.041477570234672488 0.15731394443011351 0.052881711211845851 0.10638735356473905 0.1091614798887779 0.13939654359661657 0.053453859935934586 0.18911195606505246 0.089608162737071631 0.033125270904170091 0.069877340628996545 0.10604134643519368 0.034218331359471776 0.069560929334415614 0.18654360945549806 0.20533055176078951 0.18392505223211272
decision_type=2 2 2 2 2 2 2 2 2 2 2 2 2 2 2 2 2 2 2 2 2 2 2 2 2 2 2 2 2 2
left_child=1 2 4 -4 5 8 15 18 11 -9 13 12 -1 -2 -3 -7 17 -17 19 20 -8 -21 23 -15 -20 -26 28 -28 -14 -18
right_child=10 14 3 -5 -6 6 7 9 -10 -11 -12 -13 26 22 -16 16 29 -19 24 21 -22 -23 -24 -25 25 -27 27 -29 -30 -31
leaf_value=0.0025381726925243105 0.0014172832737603806 -0.002439117966387122 0.0043427543391166166 0.0010169019130381557 0.0034759933889976775 -0.00018276969251742776 0.0013388228078402772 0.0023416579417727722 -0.0011185510544202064 0.0063526132267119209 -0.0019337368131678906 0.0041773945380480619 -0.00068614270772335533 -0.001505211242323353 0.0034753671192214136 0.0014461118083464782 0.0024056909223244441 -0.00085025650252076531 -0.00082657755271404055 -0.0011638344611195226 0.0068856864601446986 0.0029887123070400923 0.00017691413789178392 9.6206009532615847e-05 0.00049185641697311623 0.0059147698136786725 0.0019842225378632781 0.00015411334646547767 0.00025770202584972493 0.0076679025019468754
leaf_count=561 563 2265 1409 2966 609 3465 661 516 2763 515 4876 200 4815 5692 66 1258 292 789 119 929 119 201 1490 1178 152 291 1225 2280 7624 109
internal_value=0 0.0464506 0.0651955 0.209994 0.0435853 0.0369967 0.105704 0.22061 0.00371957 0.440754 -0.121928 0.0228914 0.0177454 -0.0826554 -0.225111 0.0371972 0.115354 0.0561339 0.126666 0.0711981 0.229556 -0.0396945 -0.0979917 -0.123086 0.308565 0.412796 0.00920845 0.0799277 -0.0107822 0.40513
internal_count=49998 36199 33868 4375 29493 28884 9416 3503 19468 1031 13799 16705 16505 8923 2331 5913 2448 2047 2472 1910 780 1130 8360 6870 562 443 15944 3505 12439 401
shrinkage=0.01


Tree=5
num_leaves=31
num_cat=0
split_feature=38 7 35 85 94 38 30 74 94 17 98 24 47 92 53 78 24 55 6 28 80 30 81 14 25 35 92 19 17 44
split_gain=125.912 35.3923 38.227 25.4694 26.5587 23.8912 19.7989 16.3765 14.7718 13.8385 13.5735 11.248 10.3235 9.87755 9.24313 14.0652 14.8243 13.9259 12.8391 9.4934 9.45508 9.21875 9.17105 9.01397 8.96172 8.87021 8.56605 7.9046 7.28103 8.01982
threshold=1.0000000180025095e-35 1.0000000180025095e-35 0.033117924557115749 0.033340137570383239 0.097707754668973953 0.13583205658773867 0.06522187868523982 0.06607758656988956 0.11098524564487268 1.0000000180025095e-35 0.39946831130282479 1.0000000180025095e-35 0.1889968481237923 0.14931878423560979 0.018897909334351534 0.12075614691755455 0.047091746362609217 0.051388525970137933 0.091505892597375335 0.147362364180293 0.25391309020838676 0.10921159189347808 0.26812998677246469 0.27674471786618277 0.071832291583511301 0.080835438175765328 0.060073020891013691 0.075955013909287869 0.24709021937029466 0.25075058846976722
decision_type=2 2 2 2 2 2 2 2 2 2 2 2 2 2 2 2 2 2 2 2 2 2 2 2 2 2 2 2 2 2
left_child=1 2 6 4 11 12 7 9 27 -1 26 24 -6 -7 15 17 -17 20 -16 -20 23 22 -10 28 -2 -26 -9 -8 29 -11
right_child=3 -3 -4 -5 5 13 8 10 21 14 -12 -13 -14 -15 18 16 -18 -19 19 -21 -22 -23 -24 -25 25 -27 -28 -29 -30 -31
leaf_value=-0.0019172681992839641 9.1356556952451258e-06 -0.0023982047419268972 -0.0012118768288213485 -0.0021105769464023197 0.00011010853180708318 0.0034557512321162832 0.00035072849888705772 0.0054543238663635552 0.0075333338917173776 0.002192198788615052 0.013551406410291417 -0.0013155038050784852 0.0060330145248574168 0.011463169252331287 -0.0011399395213004316 -0.00039085665699260878 0.0076347784157901168 -0.00061779992969291937 0.0045308504753372924 -0.0029318373987223707 -0.0035366145942361559 0.00061164415223562542 -0.0016993016807958993 0.0093916798322369911 0.0084131906240504338 -0.0018980146614770081 0.0014296315950428546 -0.0015440429712862025 0.00091053795062726029 -0.00064054809318998926
leaf_count=503 422 1387 2987 9109 1860 208 3996 488 243 10761 50 8534 124 108 1139 144 331 1135 355 83 131 288 52 54 116 44 479 1294 3113 460
internal_value=0 0.0886172 0.104959 -0.127485 -0.0606653 0.142013 0.131888 0.164717 0.0241415 0.149807 0.424547 -0.112026 0.0532083 0.666132 0.159684 0.17478 0.528 0.163456 0.00477454 0.305797 0.181082 0.338645 0.590287 0.186381 0.169134 0.567544 0.352452 -0.0115952 0.182373 0.207527
internal_count=49998 29473 28086 20525 11416 2300 25099 19226 5873 18209 1017 9116 1984 316 17706 16129 475 15654 1577 438 14519 583 295 14388 582 160 967 5290 14334 11221
shrinkage=0.01


Tree=6
num_leaves=31
num_cat=0
split_feature=68 85 17 22 7 26 36 94 91 34 17 56 91 6 6 56 15 69 90 94 26 58 1 55 70 69 17 94 63 24
split_gain=300.063 82.5362 36.7257 28.1604 25.3023 23.1777 22.5601 22.4957 15.0779 14.9047 11.8918 9.38227 10.3099 11.3467 8.61881 10.0477 8.36863 8.03866 7.693 12.1348 7.62056 7.39196 6.97673 6.86112 6.7374 6.57441 6.41792 6.42576 6.08371 5.77684
threshold=0.023809482694607829 0.032197994515070542 0.57106603538110223 0.032332529191560815 0.23846655646040418 0.17162633187277773 0.061596314023907965 0.11613200347011311 0.080726532239783308 0.034383661783599036 0.020150998695353906 0.11832675710134671 1.0000000180025095e-35 0.095639196280341315 0.18892069404803738 0.059965483927943632 0.22154149467917431 0.12319540280227244 0.042267680061877623 0.056051981402623012 0.077012558328968347 0.24310986482820918 0.21093732816623992 0.1447402641516056 0.14686559672255492 0.15584249524725893 0.057808673620715102 0.19162330977772915 0.028103036533054883 0.33163683940473493
decision_type=2 2 2 2 2 2 2 2 2 2 2 2 2 2 2 2 2 2 2 2 2 2 2 2 2 2 2 2 2 2
left_child=1 2 3 4 6 7 8 11 14 -3 -9 12 13 23 18 -16 -14 -11 24 20 -20 28 -10 -5 29 -12 27 -7 -13 -1
right_child=-2 9 -4 5 -6 26 -8 10 22 17 25 21 16 -15 15 -17 -18 -19 19 -21 -22 -23 -24 -25 -26 -27 -28 -29 -30 -31
leaf_value=-0.0013079055830469361 0.0021272236419891243 0.0017897400218535367 -0.0034453348881272588 0.00035513466005473809 0.0011619828379423793 -0.0035285204036116756 -0.0035853711167639904 0.0010676236703220114 -0.00024301766629875694 -6.9927348915242479e-05 -0.0034707514912345229 -0.00027453093327801584 0.0012620435011928245 -0.0021021917635489062 -0.0017020154496595534 -0.0049708402225166768 -0.0051379379819260704 0.0023343587793248793 0.0017171216806411997 -0.002102499685240674 -0.0017307560284116421 0.0032130058235669339 0.002609721347363988 -0.0056567012307454246 0.0013327472449326569 0.0018907543971250745 0.00018955067738562589 0.0028004197665796623 0.0022001904038375917 -0.0041626435840984395
leaf_count=15768 12074 2921 1378 1888 1079 627 946 220 2034 2627 628 516 1863 679 875 303 41 373 698 458 188 484 219 37 222 54 170 34 430 164
internal_value=0 -0.067608 -0.0986223 -0.0874153 -0.114514 -0.00617356 -0.12592 0.0236251 -0.115235 0.100359 -0.20279 0.0583282 0.0235324 -0.0397064 -0.129642 -0.257615 0.109903 0.0235237 -0.12089 -0.00825826 0.0974357 0.167217 0.00439828 0.0212024 -0.130233 -0.30263 -0.248694 -0.316765 0.0860673 -0.133978
internal_count=49998 37924 32003 30625 22954 7671 21875 6840 20929 5921 902 5938 4508 2604 18676 1178 1904 3000 17498 1344 886 1430 2253 1925 16154 682 831 661 946 15932
shrinkage=0.01


Tree=7
num_leaves=31
num_cat=0
split_feature=68 41 0 53 42 84 12 84 19 29 81 82 46 99 62 28 7 24 56 27 28 7 19 62 71 81 24 19 86 7
split_gain=137.558 29.4089 21.4605 12.9298 12.2323 30.3931 24.439 14.1071 12.2924 11.1643 8.8003 8.49252 7.0429 8.99064 11.095 11.603 8.77991 7.61833 7.48654 7.47261 6.65991 6.52107 5.98027 5.81705 5.72683 6.62251 5.49298 5.45547 6.82627 5.44985
threshold=0.023809482694607829 0.031979167924913739 0.039004352664061451 0.035713595491367787 0.10747951400254944 0.049776511767707886 0.070404379064895967 0.073858700919605544 0.18685616799347718 0.3188226121663596 0.14407211609860612 0.21178317061887458 0.10579025082675957 0.5926037391048945 1.0000000180025095e-35 0.11709427297316076 0.91303726133652219 1.0000000180025095e-35 0.28388697313202232 0.13727745698073648 0.2615762250123716 0.29779596959176746 0.082514687543947918 0.16230362191718764 0.045348434857903262 0.37349314957902408 0.25500576434928762 0.12402563866036072 0.072993432820819035 0.41796773541123405
decision_type=2 2 2 2 2 2 2 2 2 2 2 2 2 2 2 2 2 2 2 2 2 2 2 2 2 2 2 2 2 2
left_child=1 2 4 11 7 22 29 8 9 12 -10 21 13 14 16 18 17 -1 24 -17 -9 -3 -6 26 -16 -26 -4 -19 -29 -7
right_child=-2 3 23 -5 5 6 -8 20 10 -11 -12 -13 -14 -15 15 19 -18 27 -20 -21 -22 -23 -24 -25 25 -27 -28 28 -30 -31
leaf_value=0.0019258631926159608 -0.0017562155451614687 -0.00059216671746055839 -0.00026548228956424345 -0.0025208053245254027 0.00023473872299962622 0.0084202560478870443 -0.00072124100493279871 -0.0010531280038360807 0.0012317207387221778 0.0033048519009277271 0.005862957669001842 0.005699229851288218 -5.1085296040770961e-05 -7.4896146839800067e-05 5.765572139425375e-05 0.0021340421327547582 -0.0025725294468778126 0.00017228147195058618 -0.0031344335748853614 -0.00053178106412950493 0.0063854214271612244 0.003181888932834805 0.0037016327868351945 -0.0020500115596890499 0.0011536989414569394 0.0083077802522969844 0.004346346236134742 -0.00086980455543457296 0.0094508198160078404 -0.00073126091695204637
leaf_count=6960 12074 3192 3921 1208 1139 430 150 1591 297 645 292 69 2920 2711 5250 2238 166 1455 214 444 30 158 196 664 1374 34 80 37 37 22
internal_value=0 0.0557862 0.0753469 -0.0851598 0.0946604 0.238952 0.584639 0.084062 0.0950814 0.0884667 0.361345 -0.0254891 0.0817031 0.0938006 0.108879 0.064348 0.157697 0.166197 0.0231229 0.169291 -0.086085 -0.0401464 0.0777725 -0.0432642 0.034565 0.140802 -0.0158224 0.0450717 0.499864 0.796628
internal_count=49998 37924 33297 4627 28632 1937 602 26695 25074 24485 589 3419 23840 20920 18209 9554 8655 8489 6872 2682 1621 3350 1335 4665 6658 1408 4001 1529 74 452
shrinkage=0.01


Tree=8
num_leaves=31
num_cat=0
split_feature=85 36 24 36 77 25 55 9 86 56 8 16 98 30 87 72 95 83 18 25 49 83 16 24 55 30 60 30 72 77
split_gain=118.87 54.8712 52.4524 32.7747 29.2321 25.0879 24.4555 20.4731 13.5997 13.6595 13.456 16.862 20.9545 12.8411 16.0646 12.6778 11.6218 10.3361 10.3149 9.76444 11.3616 9.21968 11.71 11.5642 9.12322 7.79367 7.67753 7.29945 7.08006 6.97048
threshold=0.031108553475278241 0.10743658951386748 1.0000000180025095e-35 0.035194353090341225 0.46292651276723656 0.060571664954266663 0.08262669073796787 0.082662248074766104 0.023585277927380618 0.11741171657123183 0.11142202763052718 0.093135914212379892 0.12593038704229004 0.060464481544316807 0.18218224285997972 0.042585579121588439 0.065314262360068556 1.0000000180025095e-35 0.31332844118394038 0.067357561347102732 0.12614665446016274 0.04496072056190506 0.15127103600174599 0.079580329545836978 0.098763834127176126 0.091969359472917303 0.40948525872114705 0.038461526222225616 0.1448615050709999 0.41448114309893175
decision_type=2 2 2 2 2 2 2 2 2 2 2 2 2 2 2 2 2 2 2 2 2 2 2 2 2 2 2 2 2 2
left_child=1 2 13 7 5 -3 25 10 9 21 26 12 -12 14 17 -11 -7 -1 -16 20 -14 -9 23 24 -23 -5 -4 -8 -19 -15
right_child=-2 4 3 6 -6 16 27 8 -10 15 11 -13 19 29 18 -17 -18 28 -20 -21 -22 22 -24 -25 -26 -27 -28 -29 -30 -31
leaf_value=-0.001881986644284216 -0.0020412179174401309 0.0043383887323780648 -0.0010541063935104445 0.0053377910698066446 -0.0027234597537021811 0.015651403606418833 0.0033299681429627636 8.2709347744815159e-05 -0.000492360309521154 0.0019246244306119428 -2.414732020223124e-05 -0.0017619265924408922 0.00059240274167632724 0.0004898733454794758 0.002842483428213533 0.010733890097316524 0.0038063809758314129 0.0015241327483321329 0.0081820851882590372 0.011267034225650461 0.009927120774959412 0.0019547774438691788 0.0093249877537857663 0.00060571072264129812 0.013327895246203128 -0.00049260333218485686 0.003018003065908984 -0.0020498325125443981 -0.0011415593573320404 -0.0023249748316459622
leaf_count=429 10220 422 15071 873 136 176 132 1212 1914 171 456 518 176 2591 1709 124 63 10774 169 122 71 77 96 592 46 113 194 450 453 448
internal_value=0 0.0522634 0.0408493 -0.0260803 0.594941 0.774288 0.26742 -0.048411 0.0828621 0.191277 -0.0819554 0.120165 0.305377 0.13095 0.158791 0.603514 1.30179 0.129149 0.339659 0.667196 0.378536 0.126251 0.298178 0.192311 0.737057 0.467388 -0.0998836 -0.0764 0.141504 0.00648635
internal_count=49998 39778 38981 22408 797 661 1568 20840 4232 2318 16608 1343 825 16573 13534 295 239 11656 1878 369 247 2023 811 715 123 986 15265 582 11227 3039
shrinkage=0.01


Tree=9
num_leaves=31
num_cat=0
split_feature=16 85 7 20 93 93 90 77 36 3 36 58 11 92 19 21 11 77 41 58 81 7 90 90 6 42 74 19 37 13
split_gain=192.926 79.1508 34.5991 24.0679 23.439 19.8864 31.1479 17.6659 15.3055 15.3747 15.1668 13.8231 13.8215 11.3344 20.0416 11.5526 10.7252 10.6857 10.368 10.025 10.0104 8.90957 8.85108 8.45219 8.24419 8.13207 7.75387 7.4623 6.88585 6.87093
threshold=0.021267463992479512 1.0000000180025095e-35 0.20894608422857813 0.10222508543924715 0.023205740880577443 1.0000000180025095e-35 1.0000000180025095e-35 0.22633889175363744 0.047666373137529444 0.069754948997377816 0.09108437258636369 0.21356629610027714 0.033905161709873878 0.11348370123846234 0.14158390395757495 0.20196858940369047 0.14202320762705392 0.16206176962536858 0.035456472558075415 0.15904312504328369 0.19408948745859375 0.56527803771649554 1.0000000180025095e-35 0.01941182432937388 0.10871486965973003 0.13908490544242111 0.14403188388423951 0.092690368655991659 0.080866159549781963 0.1122970433341597
decision_type=2 2 2 2 2 2 2 2 2 2 2 2 2 2 2 2 2 2 2 2 2 2 2 2 2 2 2 2 2 2
left_child=1 2 3 5 8 10 20 -3 12 -10 13 -5 28 15 23 18 -12 -8 26 -11 -7 22 -6 -15 -9 -17 -1 -26 -2 -20
right_child=4 7 -4 11 21 6 17 24 9 19 16 -13 -14 14 -16 25 -18 -19 29 -21 -22 -23 -24 -25 27 -27 -28 -29 -30 -31
leaf_value=-0.0017175040886156668 0.00084760582116611587 0.0017459578692951647 0.0014434264987607378 -0.00035555912462517013 -0.00090908419991151377 -0.0057455711281869494 0.0021538875564438196 0.00084520730267451626 -0.0025281633207325676 -0.0030077137974731764 -0.0026940537743021515 0.0024812240910166228 0.0016047020801441894 0.00064477490437255718 -0.0041930605774322689 -0.00028999764489604798 -0.0078485485839627118 -0.00016696619949762236 0.00074087101037632083 0.003897654479651807 -0.00052975150091799325 -0.0027183378614057084 0.0021295262158026276 -0.0025778171064093866 -0.00046959486810737466 -0.0051434710151032738 0.00043085359330138624 -0.003933503219550191 -0.00052229644572476266 -0.0029635351441111174
leaf_count=16019 2274 3349 1312 1251 232 237 904 965 583 61 542 604 4414 1733 263 2443 114 992 693 177 140 88 7474 210 700 76 409 181 1423 135
internal_value=0 -0.0680928 -0.100485 -0.112501 0.135804 -0.12514 0.0129206 0.107585 0.0815262 -0.11881 -0.13896 0.0574325 0.101968 -0.131916 -0.0265288 -0.143627 -0.369227 0.0943564 -0.157894 0.207505 -0.38709 0.197967 0.203667 0.0285258 -0.0140541 -0.045539 -0.166389 -0.121691 0.0320244 0.0109698
internal_count=49998 33272 28077 26765 16726 24910 2273 5195 8932 821 22637 1855 8111 21981 2206 19775 656 1896 17256 238 377 7794 7706 1943 1846 2519 16428 881 3697 828
shrinkage=0.01


Tree=10
num_leaves=31
num_cat=0
split_feature=16 26 89 89 30 73 65 88 65 4 73 30 95 96 89 12 6 7 82 25 89 89 37 30 2 65 56 29 73 77
split_gain=105.367 71.1469 41.9556 20.0351 19.1036 14.9119 14.4732 18.6992 12.0183 11.685 14.9962 10.6267 10.1056 9.17087 8.94133 8.71746 8.47151 8.3426 8.02632 7.24728 7.23508 7.7964 11.522 11.5576 7.29408 7.05283 7.09756 6.81098 6.99856 6.68132
threshold=0.029379234078358418 0.17473739337199876 0.52664008398444218 0.57842986598461876 0.27852748531007293 0.033476666206478004 0.3299632289983464 0.074360327807445337 0.27643601751463348 0.16646378896777622 0.032279080711593959 0.064757222429760689 0.093646709822378035 0.11325717446789664 0.5733558899949448 0.046344064846388443 0.033834285849771085 0.53183417742156369 0.046544559540661286 0.063199705794407771 1.0000000180025095e-35 0.2143921081429018 0.051953888891813842 0.1372972044126444 0.074273909463494894 0.19525344538260028 0.08095671609001838 0.083333374242764977 0.063165069543813165 0.5244283901718928
decision_type=2 2 2 2 2 2 2 2 2 2 2 2 2 2 2 2 2 2 2 2 2 2 2 2 2 2 2 2 2 2
left_child=1 2 4 14 5 6 7 20 13 10 11 17 -9 16 -4 -8 -3 19 -13 -2 -1 22 24 -24 -22 26 -14 28 29 -18
right_child=9 8 3 -5 -6 -7 15 12 -10 -11 -12 18 25 -15 -16 -17 27 -19 -20 -21 21 -23 23 -25 -26 -27 -28 -29 -30 -31
leaf_value=0.0022687267639046995 -0.0014142652759885836 0.0019446082356777323 0.001147794956465584 0.0010096814410305297 0.0025874710897519147 -0.0010153987459777562 -0.0025634268426312696 0.0003953886676067933 0.00028571405237086482 -0.0022333952403537061 -0.0015928749413612019 -0.00030384699843360541 0.0034317506552258882 0.0013518799864882041 0.0042430460640281711 0.0011454878702976904 0.0073132782207886082 0.0043356783633457961 0.0020361825437633248 0.00042577184244381835 -0.0007716005121709581 0.00031709272581112696 0.0001411460510551919 0.0045638930367571376 -0.0031554915706518611 -0.00020055084330269018 0.00056242291518334298 0.0028541462583647342 0.0025221479853466057 1.3368836124608023e-05
leaf_count=479 3238 309 449 2919 1017 4478 1002 1683 304 3329 6862 1118 1407 325 1404 281 835 94 961 990 4179 8795 1555 228 504 325 399 307 175 47
internal_value=0 0.0609278 0.0371408 0.199155 0.0075331 -0.00274139 0.0184659 0.031236 0.379504 -0.123172 -0.0978758 -0.0320801 0.149462 0.432213 0.35121 -0.174659 0.488244 -0.0853775 0.0784608 -0.0983297 0.00247485 -0.00480281 -0.0545039 0.0740998 -0.103617 0.235212 0.280832 0.551972 0.624629 0.693091
internal_count=49998 33406 31104 4772 26332 25315 20837 19554 2302 16592 13263 6401 3814 1998 1853 1283 1673 4322 2079 4228 15740 15261 6466 1783 4683 2131 1806 1364 1057 882
shrinkage=0.01


Tree=11
num_leaves=31
num_cat=0
split_feature=75 12 85 11 85 17 23 67 75 16 70 97 80 52 11 12 33 17 29 55 70 96 11 12 56 84 72 10 96 29
split_gain=145.242 57.9495 24.459 26.6821 23.6489 14.8506 28.1842 20.1494 12.874 12.2012 11.2209 11.2147 9.98462 16.0061 9.6497 17.8972 12.1165 10.1364 8.4421 9.0392 8.03947 7.65111 7.5338 10.4335 10.7074 8.13824 7.03324 6.58016 6.10168 6.48053
threshold=1.0000000180025095e-35 0.15097431410548065 1.0000000180025095e-35 0.095692553347359918 0.033340137570383239 1.0000000180025095e-35 0.21206468713044294 0.20081557767823885 0.10241570611693591 0.099079855173219947 0.066238013133809809 0.21618603314241083 0.12406160034959014 0.081376690201023089 0.038465463021731115 1.0000000180025095e-35 0.13823051953119533 0.058809609919069493 0.16665969635319958 0.23628325880460629 0.019297049416672724 0.60097540010633754 1.0000000180025095e-35 0.052376050158869335 0.046307701059282773 0.074310366946451753 0.21306241905925122 0.053709889765082404 0.04892430322447034 0.030675308661058123
decision_type=2 2 2 2 2 2 2 2 2 2 2 2 2 2 2 2 2 2 2 2 2 2 2 2 2 2 2 2 2 2
left_child=5 4 3 20 8 -1 10 -8 11 27 14 -2 22 -14 15 16 18 -18 19 21 26 -7 23 -13 25 -25 -3 -5 29 -17
right_child=1 2 -4 9 -6 6 7 -9 -10 -11 -12 12 13 -15 -16 28 17 -19 -20 -21 -22 -23 -24 24 -26 -27 -28 -29 -30 -31
leaf_value=-0.0021360759910389374 -0.00094158190972353753 0.0033280087245967389 -0.0020124779264777963 0.0026471471455217989 -0.0020584090446808976 0.0013540873942709452 0.0029111253970747954 0.010987762614207499 -0.0014296543607740313 0.0035404391429264023 -0.00098947766031475806 -0.00012563295888800232 -3.6287942927419393e-05 0.0083526191424849652 -0.00064458071685645534 -0.00078831461617561577 0.01032975569524512 0.0023483176387922933 -0.00013695892994771764 0.0090352875604874996 -0.0011341037567261323 0.0060847646671395609 -0.00079044449048108799 -0.00018544057575933551 0.0054513024262041456 0.0061128531589827052 -0.0033534736902609708 0.012002210105026501 0.0056495601083021594 0.0038680812420618534
leaf_count=511 5527 807 435 53 9573 13928 407 206 7421 229 884 1659 237 161 937 184 102 210 1680 52 307 138 2099 535 356 93 63 219 560 425
internal_value=0 -0.0944005 0.241808 0.356367 -0.120396 0.138035 0.147282 0.586849 -0.0752365 0.754979 0.132597 -0.0279694 0.043226 0.357948 0.143871 0.155177 0.13653 0.538063 0.12798 0.1448 0.176621 0.140822 0.0155207 0.0904665 0.261128 0.0892039 0.278799 1.04712 0.406196 0.248217
internal_count=49998 29774 2113 1678 27661 20224 19713 613 18088 501 19100 10667 5140 398 18216 17279 16110 312 15798 14118 1177 14066 4742 2643 984 628 870 272 1169 609
shrinkage=0.01


Tree=12
num_leaves=31
num_cat=0
split_feature=75 93 72 17 90 1 95 90 27 11 72 93 84 58 19 27 93 24 11 11 34 1 19 64 17 34 8 67 2 11
split_gain=186.297 60.8376 31.4757 31.3891 21.8574 20.5716 19.758 16.7087 15.9753 15.6834 14.1215 13.3117 12.5279 11.7105 20.1957 10.7852 10.7841 10.7271 9.63213 9.54888 12.2644 9.06412 8.81768 8.30285 8.12254 11.9318 9.97904 8.93892 7.80918 9.29876
threshold=1.0000000180025095e-35 1.0000000180025095e-35 0.056011280113090631 0.57106603538110223 0.045556676508743711 0.052612018612030527 0.17162889262276837 1.0000000180025095e-35 0.047377379617816136 0.057388731948681944 0.2442901425253067 0.048575413616760564 0.048891130803604112 0.17543209033534021 0.040871148758177024 0.029493264057535395 0.041030410106052843 0.23770995963965441 1.0000000180025095e-35 0.032397812309886045 0.038389934530036897 0.19117752497063681 0.072670789979925265 0.088412217168682208 0.074291233433697756 0.052971935132113838 0.098447088765231672 0.24183814788845817 0.032900262810757044 0.20603623330727974
decision_type=2 2 2 2 2 2 2 2 2 2 2 2 2 2 2 2 2 2 2 2 2 2 2 2 2 2 2 2 2 2
left_child=3 2 4 5 6 11 28 16 -6 13 19 24 -10 14 17 18 -3 -4 21 20 -9 -7 -15 -19 25 27 -27 -1 29 -2
right_child=1 7 9 -5 8 15 -8 10 12 -11 -12 -13 -14 22 -16 -17 -18 23 -20 -21 -22 -23 -24 -25 -26 26 -28 -29 -30 -31
leaf_value=-0.00010405758898498995 0.00096133245582566797 0.0031627986859904408 0.00073935781676339894 -0.0033827742034182795 0.00039724045640327811 -0.00087975649641543641 -0.0010146176297178133 0.0019086728337834829 -0.0018797161569443679 0.0009576163882888478 -0.0029316533598385832 -0.0049068012211313265 -0.0070620847261872975 -0.0019035512096617453 -0.0029791899601378873 -0.0042032892833787742 -0.0027009426833656696 -0.0075063628438109568 0.0024041967405363622 0.0021552120764125817 0.0007213883034932248 0.001719288146430411 0.0013566491941945063 0.0019831128625026353 -0.0013905283102425144 -0.0013098669716674722 -0.0047733846400016666 -0.0016294874218099511 0.0022388216210069553 -0.001449887725688846
leaf_count=4582 7382 87 671 1378 537 901 1319 4210 430 741 155 214 146 317 1715 102 343 62 578 5462 4189 487 499 27 9770 814 259 1139 1086 396
internal_value=0 0.0780449 0.010132 -0.114376 0.0520921 -0.0977502 0.074684 0.1503 -0.152784 -0.107067 0.159586 -0.115652 -0.329015 -0.152717 -0.205464 0.0477722 -0.147541 0.0047723 0.0740428 0.164865 0.131766 0.00377826 0.00818452 -0.471806 -0.110517 -0.0692798 -0.218226 -0.0410317 0.10104 0.0836765
internal_count=49998 29774 15328 20224 11296 18846 10183 14446 1113 4032 14016 16778 576 3291 2475 2068 430 760 1966 13861 8399 1388 816 89 16564 6794 1073 5721 8864 7778
shrinkage=0.01


Tree=13
num_leaves=31
num_cat=0
split_feature=17 53 92 58 42 3 54 29 82 63 96 58 9 58 77 3 98 97 92 43 58 81 86 31 41 96 13 43 77 43
split_gain=79.2741 54.5131 30.9346 25.9878 22.5588 24.5729 14.8293 14.7638 15.998 13.8709 13.8669 13.6585 13.7554 8.52775 8.02578 7.91846 9.95649 8.54547 8.11362 7.74233 8.51228 11.1416 7.43394 7.12373 6.80322 6.54056 6.13663 6.02806 6.0151 5.81133
threshold=0.40234364787587723 0.018897909334351534 0.067889967560347597 0.045801934661320098 0.11073221141269152 0.046434705633646579 0.045250479401247289 0.3188226121663596 0.068976805897262058 0.12007096447372927 0.019421234027289517 0.080616336620783588 0.085161468350398548 0.13629401446199016 0.26049304155277192 0.042841079116765469 0.06691576833009677 0.2749531753187236 0.071488239367949916 0.16437909809219411 0.0852906838928328 0.11754860772790363 0.063368283721921673 0.30561854104889219 0.082908798836057271 0.028187651410723182 0.20939224963172687 0.11523265190710798 0.1771160549604929 1.0000000180025095e-35
decision_type=2 2 2 2 2 2 2 2 2 2 2 2 2 2 2 2 2 2 2 2 2 2 2 2 2 2 2 2 2 2
left_child=1 2 4 9 7 13 -3 8 11 15 -7 12 23 -6 26 16 17 27 -19 20 -16 -22 -13 29 -14 -11 -10 -4 -12 -1
right_child=-2 6 3 -5 5 10 -8 -9 14 25 28 22 24 -15 19 -17 -18 18 -20 -21 21 -23 -24 -25 -26 -27 -28 -29 -30 -31
leaf_value=0.00044486465023209603 0.0037409059052240404 -0.00030652787346533583 0.002413866270746661 -0.00096119765649183258 0.0016725706904715848 -0.0020842518030307045 -0.0019399895044344545 0.003339822107539408 0.00041204889243649063 0.0079176643740561953 -0.0019175459143840592 -0.0003529416767911283 0.0034663915620108689 -0.0027366627312438198 0.00065683345036326448 -0.00089160265532552086 0.00017671061656267023 -0.0035923381798311344 0.0068112195273031927 -0.0029970420690025104 0.0063450686350304333 0.0022020368555739364 -0.0021885295691958864 0.0026187667652090903 -0.0028120440692535353 0.00011429652802595351 0.006931568857163649 -0.0032421644017801279 0.0067651139885237174 -0.00043643412094118532
leaf_count=10315 1901 2858 380 11063 593 71 6540 579 1503 134 24 3985 670 196 436 726 937 21 232 73 377 623 969 438 57 52 39 68 564 3574
internal_value=0 -0.0150719 0.0161802 -0.0563837 0.0553752 0.282182 -0.144282 0.0412604 0.0336555 0.114757 0.545168 0.0142052 0.0424244 0.0548427 0.160496 0.0738211 0.146053 0.31338 0.580646 0.257646 0.28861 0.383292 -0.0716892 0.0294471 0.293027 0.590836 0.063901 0.148252 0.637792 0.0218287
internal_count=49998 48097 38699 13613 25086 1448 9398 23638 23059 2550 659 20008 15054 789 3051 2364 1638 701 253 1509 1436 1000 4954 14327 727 186 1542 448 588 13889
shrinkage=0.01


Tree=14
num_leaves=31
num_cat=0
split_feature=2 68 70 98 67 26 89 8 22 44 91 98 32 6 30 84 4 6 76 41 6 69 41 84 30 16 30 92 6 16
split_gain=122.244 69.3661 31.1731 41.2857 25.6079 22.3008 15.6438 15.8287 20.6968 15.4202 13.8827 14.135 11.6281 9.24996 9.36918 9.18239 8.24304 8.0591 7.43872 7.92172 7.35566 7.14295 6.92709 7.43665 8.01953 6.83904 6.56026 6.32805 6.20979 6.11343
threshold=0.032900262810757044 0.023809482694607829 1.0000000180025095e-35 0.39946831130282479 0.092613445997263191 0.030726404600518922 0.040807516467039014 0.097433174194099609 0.086437622965628819 0.13839943202451063 0.07449169728695075 0.14353051728787639 1.0000000180025095e-35 0.14504684077467628 0.13849761324253299 0.067879378023653167 0.08161075064945901 0.16698312636273399 0.084981732990843425 0.039473834168471757 0.065469174985390288 0.084046806565268792 0.23384824924462996 0.060644600237656457 0.0693159738688615 0.20129498419511618 0.070832331251714495 0.035476902978115697 0.070674592341479117 0.17189749652935668
decision_type=2 2 2 2 2 2 2 2 2 2 2 2 2 2 2 2 2 2 2 2 2 2 2 2 2 2 2 2 2 2
left_child=1 2 3 4 5 6 -1 12 10 13 11 21 16 14 -6 -14 22 -7 -3 -20 -10 -9 23 -8 27 -11 -17 -25 -13 -5
right_child=-2 18 -4 29 9 17 7 8 20 25 -12 28 15 -15 -16 26 -18 -19 19 -21 -22 -23 -24 24 -26 -27 -28 -29 -30 -31
leaf_value=-0.0018609204653375732 -0.0020297291058216206 -0.001959881731939641 -0.00085036721236158609 0.011918283829322061 0.0022444605272070139 -0.00089285954796195248 0.0013826030746817307 0.0016766083735197826 -0.0030951637680586702 0.0085479122273166182 -7.8140724646042371e-05 0.0020755289901334987 -0.00066018411411745504 0.0058482027844441462 -0.0018194089661145467 0.0070856695016089412 -0.00067248721642226817 0.0012133394517371155 -0.0014491296946171407 0.0010734179450243976 0.0022813941110590764 0.010114459615867979 -0.0033353416188706625 0.0029149662729185946 5.8592727250812757e-05 -0.0021314914748836239 -0.0010821285893581078 0.0082538835516393714 0.01203109458067037 0.0010173515795394315
leaf_count=729 10587 4308 3854 161 3614 3839 13696 219 174 230 135 41 2155 283 260 105 863 1016 1417 903 263 42 118 278 193 23 62 171 229 30
internal_value=0 0.0540744 0.0938503 0.117587 0.110636 0.0835972 0.115475 0.127297 0.371112 0.258399 0.599908 0.748395 0.111674 0.225434 0.196576 -0.0276817 0.132762 -0.0448293 -0.143892 -0.046563 0.0104725 0.359919 0.14471 0.149051 0.369338 0.750213 0.424937 0.518932 1.07537 1.04516
internal_count=49998 39411 32783 28929 28738 24328 19473 18744 1103 4410 666 531 17641 4157 3874 2322 15319 4855 6628 2320 437 261 14456 14338 642 253 167 449 270 191
shrinkage=0.01


Tree=15
num_leaves=31
num_cat=0
split_feature=24 26 85 14 7 33 98 98 23 6 78 33 11 33 27 88 88 88 27 23 88 13 39 24 42 38 0 24 26 32
split_gain=159.983 67.6222 44.4959 26.8935 26.7532 21.4842 20.7203 18.4997 17.1022 14.9759 12.5491 12.4445 11.8734 12.482 11.6408 14.1564 11.3844 10.6442 10.1747 9.76333 9.45751 9.39076 8.99201 8.84652 8.64279 9.07417 8.60603 8.50784 8.49929 8.3956
threshold=1.0000000180025095e-35 0.17162633187277773 0.033340137570383239 1.0000000180025095e-35 0.20894608422857813 0.08707991164960939 0.067802626767897514 0.41365738759755105 0.16786684363533314 0.1985526197134185 0.12527098056865024 0.049195821736476672 0.033905161709873878 0.050436328287796449 0.043244226793112524 0.04524443913134913 0.074360327807445337 0.092799688905100305 0.049640473560783653 0.28891443737460748 0.16232046097472633 0.19187784079775524 0.092863572517360951 0.21261225696044436 0.065175641020558298 0.1099324196245202 0.040382903209099257 0.12242703043778848 0.09336680433407267 0.18239692740343208
decision_type=2 2 2 2 2 2 2 2 2 2 2 2 2 2 2 2 2 2 2 2 2 2 2 2 2 2 2 2 2 2
left_child=4 2 3 7 6 -3 8 9 22 10 14 -9 13 -5 17 -16 -11 21 -14 -4 28 -2 26 -12 25 -25 -1 -7 -8 -10
right_child=1 5 19 12 -6 27 20 11 29 16 23 -13 18 -15 15 -17 -18 -19 -20 -21 -22 -23 -24 24 -26 -27 -28 -29 -30 -31
leaf_value=-0.0017026428913819842 0.0009958443695774759 -0.00093526640448241981 0.0017505047255863924 0.0012382858289745396 0.0014962693932304278 -0.0056431331302230102 0.00017982643890330851 0.0019068502512263141 -0.0026832450688184435 -0.00039525259722530585 -0.0004466855629952265 -0.0071204641492373343 0.0021091658915552963 -0.00093998864990990823 -0.0025607301833458075 0.0003059846663990267 -0.0032117285497443582 -0.00035335005254397367 -0.00085897068673699683 -0.0035419538037642635 0.0023046949487834268 -0.0017667629131920179 0.00023838523427158786 -0.0064882323076753271 0.0014583213964902699 0.0013612069625825211 -0.00054707758961306137 -0.0020617833169638985 -0.0025894759482970892 -0.0064819896373287901
leaf_count=10940 7855 1716 9457 1887 819 391 1272 45 445 1088 732 128 3282 937 628 1163 494 2052 298 76 377 298 715 176 58 40 1803 289 325 212
internal_value=0 0.0627567 0.0823922 0.0428258 -0.122125 -0.186967 -0.135971 0.0064696 -0.156636 0.0126197 0.0299743 -0.481365 0.126691 0.0513902 0.043949 -0.0708466 -0.129042 0.0641806 0.185992 0.17047 0.0125882 0.0892785 -0.144546 -0.13526 -0.367298 -0.504603 -0.153986 -0.417269 -0.0396588 -0.398678
internal_count=49998 33090 30694 21161 16908 2396 16089 14757 14115 14584 13002 173 6404 2824 11996 1791 1582 10205 3580 9533 1974 8153 13458 1006 274 216 12743 680 1597 657
shrinkage=0.01


Tree=16
num_leaves=31
num_cat=0
split_feature=83 11 63 86 23 52 19 83 23 70 98 55 62 3 47 98 48 46 34 70 20 91 3 83 45 7 86 47 91 19
split_gain=80.8325 52.4089 18.8219 21.9418 17.3217 16.8459 26.4439 18.089 17.5144 15.7724 12.4903 11.5197 9.56066 8.57435 15.4513 8.24159 8.26686 7.9542 7.93613 9.50756 7.70714 7.53325 7.47366 6.956 7.48526 7.30488 6.88191 6.77587 6.24678 9.31447
threshold=0.37359995216871528 0.030322617079430538 0.10542361469482935 0.081708228472343478 0.049146614364239324 0.092608689563393951 0.067782278085312245 0.15086900917028034 0.27975933791421714 0.064118767548510092 0.074589186205382504 0.10537508416124945 0.070692926633909955 0.052843758754841451 0.065006166251094066 0.22743952984325902 0.051551863488817164 0.086277223690529772 0.030467231932494506 0.031262643254752968 0.082341265806696706 0.020906358604703409 0.1217292368042818 0.068112179605301817 0.35119274685201857 0.49163220623967624 0.1381871448602052 0.075674248335268243 0.098848099820085536 0.15800562466458315
decision_type=2 2 2 2 2 2 2 2 2 2 2 2 2 2 2 2 2 2 2 2 2 2 2 2 2 2 2 2 2 2
left_child=1 2 3 5 10 7 18 8 23 11 -3 12 -8 20 -15 16 -6 27 -7 -20 26 22 -14 25 -25 -1 -4 -11 29 -5
right_child=-2 4 13 28 15 6 9 -9 -10 17 -12 -13 21 14 -16 -17 -18 -19 19 -21 -22 -23 -24 24 -26 -27 -28 -29 -30 -31
leaf_value=-0.00061838352032038001 0.0037027864505264369 0.00042175225329467106 0.0012969159900461495 -0.0010791349527542477 0.0019494756955818157 -0.00073467338687581961 -0.0010310603227415645 0.0012127847736715502 0.0028725353965209964 0.0010064081821296745 -0.0017912147974960446 -0.0010369342835821554 0.0064802768190702666 0.0010006183858857879 0.0064632592891040175 -0.0017480043621487852 -0.0013760805559274072 -0.0014700700305142077 7.1705140746204722e-05 0.0033102676406800229 -0.00096199747366815355 0.00055651958662120572 -0.0035165328296058798 0.00016537654727438942 0.0059132919637757599 0.0012955848299253054 0.0066349761187337146 0.0073894300120351478 -0.002782293959113434 0.0046570010959576542
leaf_count=12975 1969 1009 2003 2969 1065 1448 138 3943 634 74 8932 326 343 449 303 461 344 43 884 495 545 134 20 6320 67 740 76 423 776 90
internal_value=0 -0.0155223 0.0199707 0.00613884 -0.125075 0.0238451 0.13215 0.00477686 -0.0175819 0.332408 -0.156529 0.182567 0.327419 0.153645 0.329223 0.0416465 0.113254 0.584879 0.0238882 0.125695 0.101688 0.446266 0.582155 -0.0274243 0.0238991 -0.0514023 0.153746 0.650492 -0.128028 -0.0887959
internal_count=49998 48029 36218 32842 11811 29007 4328 24679 20736 1501 9941 961 635 3376 752 1870 1409 540 2827 1379 2624 497 363 20102 6387 13715 2079 497 3835 3059
shrinkage=0.01


Tree=17
num_leaves=31
num_cat=0
split_feature=38 12 77 85 94 38 6 10 27 83 94 20 1 1 78 49 98 96 98 95 65 79 65 1 71 27 88 54 16 98
split_gain=119.201 36.2067 36.7679 24.3387 25.9028 23.106 19.0499 15.2896 16.7045 15.1866 13.8648 13.4174 11.8546 10.1688 10.1185 18.3522 12.9592 9.70832 9.54021 9.13538 8.92766 8.41679 8.31863 8.11616 7.16329 7.07813 7.69368 7.03343 8.69726 11.029
threshold=1.0000000180025095e-35 0.1687963620720126 1.0000000180025095e-35 0.033340137570383239 0.097707754668973953 0.13583205658773867 0.16698312636273399 0.055512773153386909 0.10343237660435455 1.0000000180025095e-35 0.11028362023699859 0.056711621984800821 0.078385672122047043 0.073232313734124185 0.12075614691755455 0.14285699713516242 0.085915103933093123 0.14943753425501591 0.31386633905045308 0.035800059843577196 0.086453166377921928 0.32992914604410362 0.5043949206306656 0.096443072045614212 0.098287041401074041 0.025028515036132657 0.039458117084814448 0.13415635329150247 0.20486593452946389 0.14158003492776972
decision_type=2 2 2 2 2 2 2 2 2 2 2 2 2 2 2 2 2 2 2 2 2 2 2 2 2 2 2 2 2 2
left_child=1 2 9 4 27 23 14 8 -3 -1 12 13 -8 -9 21 -16 -17 -11 -10 -7 24 25 -5 -6 -12 -4 -27 -2 29 -29
right_child=3 7 6 22 5 19 10 11 18 17 20 -13 -14 -15 15 16 -18 -19 -20 -21 -22 -23 -24 -25 -26 26 -28 28 -30 -31
leaf_value=-0.0023315184754701701 -0.0012517629979938378 0.00064280337322496857 -0.00087446045831141559 -0.002133247801058578 0.0016157687978483571 0.009481274138703602 0.0020225139586240583 0.0033677123546659755 0.009232243949220547 0.0012594234162370539 0.0070045733278636616 -0.0010706385729769817 -0.0013814855941506677 0.010881994370227533 0.00023882809091760036 -0.0034506184424430049 0.010754408767401073 0.0025918400201018887 -0.0025712715290043858 0.0020601983660971375 -0.00083653477747895567 0.0085189843126927539 0.0039809794006853893 -0.0011303320121533701 -0.00079755064054386703 0.0032120698044989788 -0.0003091027492206938 -0.0014063102676438025 -0.0017233673259953236 0.0065227524654447224
leaf_count=450 8567 621 9217 9023 1199 178 1207 140 169 10774 356 71 718 269 698 27 119 3162 28 138 104 27 86 785 57 388 871 120 245 184
internal_value=0 0.0858904 0.0697682 -0.124555 -0.0592897 0.140593 -0.00855308 0.427327 0.242602 0.144199 0.160199 0.718954 0.0754433 0.858704 -0.0451889 0.175238 0.807113 0.156525 0.747358 0.653189 0.460791 -0.0632463 -0.206762 0.0529247 0.594267 -0.0670664 0.0810022 -0.110198 0.119583 0.349418
internal_count=49998 29473 28175 20525 11416 2300 13789 1298 818 14386 2442 480 1925 409 11347 844 146 13936 197 316 517 10503 9109 1984 413 10476 1259 9116 549 304
shrinkage=0.01


Tree=18
num_leaves=31
num_cat=0
split_feature=16 2 65 83 73 3 9 47 27 9 83 64 72 0 72 89 66 47 52 76 65 47 83 79 76 47 57 59 52 47
split_gain=184.922 60.1603 46.7627 29.8351 25.9012 20.4189 28.7524 25.659 17.6796 17.1384 16.7209 12.9828 10.9079 10.7205 10.3432 10.022 9.93217 9.66076 9.03149 8.63568 8.56192 8.14528 10.7772 8.13612 7.44586 7.40932 7.29213 7.59898 7.14578 7.02334
threshold=0.021267463992479512 0.039841201654854767 0.05095636117468668 0.52037381775649894 1.0000000180025095e-35 0.07914118049954838 0.063208649739723052 0.085142804054702106 0.0504683081901122 0.078333731753190181 0.10708163642040602 0.11585515727728106 0.16952520430009607 0.040382903209099257 0.082295694002507455 0.21041470034609552 0.21224342329065282 0.088064218848365391 0.16411942935595866 0.044282773805458191 0.04084776210313576 0.17521195410751556 0.049027388915830084 0.035231735064332491 0.11203476404509048 0.14328350727101954 0.59255119180080884 0.16866086305046615 0.095949731520108897 0.12659963129061433
decision_type=2 2 2 2 2 2 2 2 2 2 2 2 2 2 2 2 2 2 2 2 2 2 2 2 2 2 2 2 2 2
left_child=1 2 3 5 9 6 8 -7 10 11 13 15 23 16 19 25 21 -11 -16 -3 -19 26 -23 -4 -6 -2 27 -1 -8 -13
right_child=4 14 12 -5 24 7 28 -9 -10 17 -12 29 -14 -15 18 -17 -18 20 -20 -21 -22 22 -24 -25 -26 -27 -28 -29 -30 -31
leaf_value=-0.00075469306635333512 0.0021048721893028415 0.0021395907474882317 0.002327633620168849 -0.0033241960347773969 0.0021705458572478858 0.001113831829326247 -0.0022334908282744571 -0.0021057994178037337 -0.0037875700581647431 3.6202143395487795e-05 -0.0014762811895280361 3.2686316399032793e-05 -0.0019113142612416027 0.00031851554833544005 0.00020393424512139095 0.00048923795531922326 -0.0026081606250265722 -0.0033610105856553291 -0.004365028886441271 0.00051742393886951743 0.0030626402127662418 -0.0057757335213196618 -0.00066213728510711568 0.00055579791445045516 0.0010816452069207551 1.1844215506109173e-06 0.00098293889036990371 0.0022591818378684967 -0.004190867920953854 -0.0033063235271444664
leaf_count=7240 3022 1934 1045 1368 6676 2123 1772 810 504 1085 7090 619 276 2746 818 2215 650 409 109 1346 49 158 245 1535 1997 464 688 197 618 190
internal_value=0 -0.0665783 -0.0914938 -0.111917 0.133169 -0.0995393 -0.115717 0.0217412 -0.0960414 0.0697804 -0.088337 0.104613 0.0964627 -0.0528709 0.106804 0.130711 -0.0782002 -0.0766493 -0.0374859 0.147667 -0.26265 -0.0639542 -0.275899 0.127917 0.192093 0.18251 -0.0531135 -0.0672201 -0.275519 -0.0783007
internal_count=49998 33272 29065 26209 16726 24841 21908 2933 19518 8053 19014 6510 2856 11924 4207 5701 9178 1543 927 3280 458 8528 403 2580 8673 3486 8125 7437 2390 809
shrinkage=0.01


Tree=19
num_leaves=31
num_cat=0
split_feature=26 98 19 88 65 29 64 58 74 81 59 65 24 99 29 26 86 26 18 54 8 77 24 97 1 97 64 97 29 97
split_gain=77.6339 71.9436 28.794 24.1486 18.4116 16.9418 16.3246 14.5074 14.2433 13.5552 11.1801 11.0501 10.4192 12.0503 10.7558 9.64785 8.49144 7.75554 7.57354 7.47112 7.12237 9.45352 6.9346 7.60484 6.60557 8.01048 6.80656 6.4873 6.04823 5.92852
threshold=0.17473739337199876 0.064774471271148451 0.018805259506165458 0.089039560733861586 0.27386032412020939 0.3188226121663596 0.16663998345027975 0.12646013857895927 0.07208637838476277 0.15354814280532406 0.053476803531929552 0.20153526290769994 1.0000000180025095e-35 1.0000000180025095e-35 0.011513095372257686 0.1120297632482757 0.038233053196455466 0.10119034402670128 0.0363841942014815 0.10626851126847096 0.031731819242237995 0.23203487309210277 0.14708718395983481 0.34754156569828049 0.097682369989369147 0.32843557086284253 0.13774329255477274 0.35541861455164375 0.18611350072296368 0.27137862310085747
decision_type=2 2 2 2 2 2 2 2 2 2 2 2 2 2 2 2 2 2 2 2 2 2 2 2 2 2 2 2 2 2
left_child=1 5 -2 6 7 12 16 -4 -8 11 -10 20 13 14 18 -14 19 28 -1 -3 21 -5 -23 -24 -11 26 -26 -22 -16 -30
right_child=2 3 4 9 -6 -7 8 -9 10 24 -12 -13 15 -15 17 -17 -18 -19 -20 -21 27 22 23 -25 25 -27 -28 -29 29 -31
leaf_value=0.0019670349311348705 0.0007247315929722227 -0.00063838564594881548 0.0064140474298732611 0.00079504854056739003 -0.0020009190952424353 0.0036103659191436752 -0.00024344856374156087 0.0023746017931587748 -0.0015507450359368519 -0.00088998663458279576 0.0069564378705570173 -0.0024661825170161121 -0.00023219237624277369 5.9161343778667403e-05 -0.00099368078840767664 0.0026288161566888715 -0.0018119723182455794 0.005974162143440446 0.00060025689913012763 -0.0018353270674111232 -0.0020489843794135117 0.0020919106865302721 0.0073758959182944816 0.0010789516949598827 -0.00064472883282328452 0.003341450554747803 0.0045692509962373005 0.0040004571336154779 0.0017508872724352799 -0.0028597785108883896
leaf_count=4934 1151 6731 1043 668 131 625 777 481 69 3404 189 221 7007 4896 1253 432 8144 61 2045 2592 250 411 259 98 901 296 84 69 674 102
internal_value=0 -0.0182145 0.303039 -0.0874719 0.460352 0.0601968 -0.122684 0.517923 0.106538 0.0100054 0.47507 0.140321 0.0510945 0.0812742 0.121754 -0.00609082 -0.136416 0.00316161 0.157047 -0.0972164 0.190478 0.246558 0.386991 0.575957 -0.0455039 0.0695829 -0.0136783 -0.0624862 -0.0186991 0.110438
internal_count=49998 47192 2806 25163 1655 22029 18502 1524 1035 6661 258 1976 21404 13965 9069 7439 17467 2090 6979 9323 1755 1436 768 357 4685 1281 985 319 2029 776
shrinkage=0.01


Tree=20
num_leaves=31
num_cat=0
split_feature=93 38 63 94 62 65 79 79 25 50 8 96 23 62 8 93 50 96 92 86 87 33 91 30 32 5 23 91 94 65
split_gain=136.543 54.5548 41.0645 29.4023 27.8833 25.8709 16.3469 16.05 18.0012 30.6196 14.5083 13.5736 26.2155 13.4757 14.0042 11.9595 11.4668 9.30912 8.90491 8.08892 7.94778 7.86636 7.76893 7.69189 7.90037 7.67454 7.50052 7.30063 7.08117 12.9868
threshold=0.023205740880577443 1.0000000180025095e-35 1.0000000180025095e-35 0.057065980679664542 0.04135885998965768 0.13852671361927948 0.15195823704941006 0.25991571235617489 0.055467265650697352 0.068906311034030346 0.097911366120755183 0.14943753425501591 0.23075401083596733 0.10230582127662362 0.081265727280480038 0.050818342127480036 0.090821759985942357 0.04353652234664368 0.050412627146600254 0.065948964696791318 0.17734740375106781 0.16698438251919015 0.12195049307677909 0.1023934889861419 0.25732672476438873 0.13101109476452585 0.12218229369725135 0.05381659462955294 0.097013714931869485 1.0000000180025095e-35
decision_type=2 2 2 2 2 2 2 2 2 2 2 2 2 2 2 2 2 2 2 2 2 2 2 2 2 2 2 2 2 2
left_child=2 15 3 4 10 7 -6 8 22 13 11 18 23 14 -10 -2 25 -11 -1 -12 -14 28 -5 24 -13 -8 -17 -19 -4 -30
right_child=1 -3 21 5 6 -7 16 -9 9 17 19 12 20 -15 -16 26 -18 27 -20 -21 -22 -23 -24 -25 -26 -27 -28 -29 29 -31
leaf_value=0.0010097657386092195 -0.0022499389810772502 -0.0019920915937311303 -0.0010569107933161891 0.002465900576636937 -0.00078242637014669424 -0.001677066216229394 0.0033439623937120732 0.010852520371417209 0.0016667197618614278 -0.00057572970355690011 0.0026165809052298805 0.0031522238314730232 0.0012218459208254624 0.011670464686692181 0.010295929087614286 0.0073118306658802945 -0.00080614092333918842 0.0061560406118364424 -0.0011524407321879474 0.010709180841401478 0.010750090096955331 0.0031841617552304806 -0.00081897465901290694 -0.00034071716874127316 0.00084782606348148535 0.011711313745581027 -0.0016525802402036244 -0.00043983684752403748 0.0021585337130162296 -0.0010931410596632762
leaf_count=11796 76 14015 6125 1734 5570 506 401 108 225 350 144 1731 54 280 123 374 277 237 907 89 182 224 385 604 1088 44 40 103 966 1240
internal_value=0 -0.174315 0.0703285 0.110659 0.0811504 0.276048 -0.0390572 0.339322 0.310193 0.502168 0.126303 0.118414 0.231218 0.829898 0.509584 0.505352 0.25644 0.185749 0.0855262 0.629127 0.882227 -0.0577679 0.186859 0.181419 0.227317 0.459452 0.641799 0.424732 -0.068624 0.0341699
internal_count=49998 14505 35493 26938 22887 4051 6292 3545 3437 1318 16595 16362 3659 628 348 490 722 690 12703 233 236 8555 2119 3423 2819 445 414 340 8331 2206
shrinkage=0.01


Tree=21
num_leaves=31
num_cat=0
split_feature=75 4 33 17 86 23 19 23 94 17 97 4 88 37 74 79 57 76 29 75 82 88 5 29 44 66 64 75 36 29
split_gain=177.572 43.2548 64.3349 29.7159 25.956 23.7665 21.89 20.0769 16.98 15.6236 12.0554 13.9716 9.72718 9.64088 9.31881 9.22554 8.67095 8.21525 9.31664 8.15559 7.70747 7.47322 7.87692 7.29591 8.40314 6.87313 6.44129 9.92761 6.5309 6.41652
threshold=1.0000000180025095e-35 0.15867451501624455 0.054134006004384443 0.57106603538110223 0.03277865146305442 0.2097354630894829 0.093876929669036338 0.068834580578951851 0.11469559427744379 0.074291233433697756 0.19669745574398537 0.10717040579329327 0.094859190983619682 0.080384620222251041 0.064486642971930658 0.040490649669191324 0.39602845414940219 0.23476613991998671 0.033410078503010504 0.16580754598658157 0.068976805897262058 0.036605227915588581 0.073976553457126379 0.062427644667566 0.073559506706087754 0.27769466920067337 0.048504641880201919 0.061684831136229745 0.097460994083020155 0.092509795715719947
decision_type=2 2 2 2 2 2 2 2 2 2 2 2 2 2 2 2 2 2 2 2 2 2 2 2 2 2 2 2 2 2
left_child=3 2 4 5 8 9 17 14 13 10 16 29 -10 20 15 -8 -1 26 -19 23 -2 22 -9 24 -14 -11 -4 28 -28 -12
right_child=1 -3 6 -5 -6 -7 7 21 12 25 11 -13 19 -15 -16 -17 -18 18 -20 -21 -22 -23 -24 -25 -26 -27 27 -29 -30 -31
leaf_value=-0.00031451047060616715 0.0015749709890855513 0.0024407943509629081 0.00035907525769950625 -0.0032866417997445951 0.0017903945049070338 -0.0035690502701080642 -0.0036826070669307904 -0.00033550374080987413 -0.00012685365154567821 -0.0011576499093288992 -0.0035253664282337638 0.00073419782032666404 -0.0051076079486987325 0.00022395265544797302 -0.0048197371256252794 -0.00082348007569689149 0.0011759390203906444 0.0017507339637285524 -0.0054819512239654544 -0.00025287904207901059 1.9955192553965236e-05 0.0014890148384797974 -0.0086437520307539196 -0.0074720205500998504 0.0019511851175432729 -0.0030981829974304283 -0.0020204955762395047 -0.00012103480839590791 -0.0088970104688404147 -0.00069761594607594139
leaf_count=5718 4062 3293 4333 1378 7541 783 467 102 988 9454 656 401 84 3538 403 637 1107 57 125 172 944 453 28 109 64 450 473 1874 27 277
internal_value=0 0.0763063 0.0554549 -0.111497 0.110285 -0.0953031 -0.051015 -0.189145 0.0582953 -0.0837487 -0.0335419 -0.167468 -0.0981084 0.084421 -0.282638 -0.205941 -0.00718029 -0.00871518 -0.324722 -0.289625 0.128184 0.054577 -0.259694 -0.458726 -0.212529 -0.124882 0.000332505 -0.0643042 -0.255788 -0.270153
internal_count=49998 29774 26481 20224 17502 18846 8979 2090 9961 18063 8159 1334 1417 8544 1507 1104 6825 6889 182 429 5006 583 130 257 148 9904 6707 2374 500 933
shrinkage=0.01


Tree=22
num_leaves=31
num_cat=0
split_feature=83 11 92 58 1 77 58 0 4 86 43 15 32 99 77 83 15 83 75 45 44 35 15 34 39 28 15 35 28 86
split_gain=78.418 50.8903 22.5184 19.9883 18.6297 18.4938 13.8638 12.1369 11.0185 20.8251 10.9686 10.6893 9.52602 8.36804 7.80871 7.66196 8.77216 7.66854 7.5481 7.48679 7.35634 9.00267 7.2108 7.73897 7.28352 7.48448 6.8815 6.55227 6.00467 7.06541
threshold=0.37359995216871528 0.030322617079430538 0.067889967560347597 0.045801934661320098 0.12315838576653371 0.20121674334272385 0.12485004393625261 0.039004352664061451 0.16503648803071108 0.033447402076776066 0.063043623164952281 0.082350436088964432 0.076840379603280398 0.5926037391048945 0.3424334947300805 0.0073629994621647469 0.40500155848367181 0.143187127791712 0.058105429219770799 0.032448119297954291 0.044583306615227282 0.12141225413990207 0.17405451141582218 0.10236253266137148 1.0000000180025095e-35 0.12721067058466215 0.21833778370466875 0.10746968900706139 0.11635862405711407 0.089932781861982933
decision_type=2 2 2 2 2 2 2 2 2 2 2 2 2 2 2 2 2 2 2 2 2 2 2 2 2 2 2 2 2 2
left_child=1 2 4 11 7 -6 18 10 9 19 13 -4 -12 15 -8 -1 28 -18 -7 20 -3 22 23 24 -22 -26 -5 -13 -17 -30
right_child=-2 8 3 26 5 6 14 -9 -10 -11 12 27 -14 -15 -16 16 17 -19 -20 -21 21 -23 -24 -25 25 -27 -28 -29 29 -31
leaf_value=0.0035111411897280915 0.0036359803886688814 -0.00068941972224127713 -8.8739518374153598e-05 -0.0010082371817285091 -0.00019407653162297741 0.0019826599621838416 -0.00086586787807473389 -0.00058915842367961656 -0.0023332672348623752 -0.0017045991284459819 -0.00055953780412628382 0.0015482245570729131 0.0021901150897627028 -0.00011429832859429337 0.0032657487886454568 0.00068522650656226592 -0.003415761568139713 0.0052367893734204711 0.0057728889139226592 -0.0012362013475601806 0.0049659235058582898 -0.0022765670373453874 -0.0022738672459589222 0.0041056081392650493 -0.00037681915338985488 0.0036319025537813257 0.0015012469739468998 0.0049989267229149101 0.0024931620892374102 -0.0028998753931091083
leaf_count=416 1969 1003 1352 8761 832 284 339 4041 2570 5296 4016 809 490 2733 288 9066 32 248 662 1064 143 210 133 478 712 202 395 251 1121 82
internal_value=0 -0.0153245 0.0196021 -0.0492479 0.0516952 0.20848 0.327046 0.0345714 -0.123458 -0.0927325 0.0552538 0.102862 -0.0254451 0.0816954 0.10643 0.104903 0.0946838 0.413989 0.468759 0.0111831 0.0611672 0.13063 0.177239 0.214074 0.120891 0.0552372 -0.0897223 0.242828 0.085317 0.209774
internal_count=49998 48029 36218 11568 24650 2405 1573 22245 11811 9241 18204 2412 4506 13698 627 10965 10549 280 946 3945 2881 1878 1668 1535 1057 914 9156 1060 10269 1203
shrinkage=0.01


Tree=23
num_leaves=31
num_cat=0
split_feature=2 68 35 17 8 49 38 84 55 84 99 87 32 81 82 28 80 59 80 54 15 38 56 86 51 15 28 9 56 54
split_gain=117.663 67.2997 39.2986 18.9216 16.8293 24.3697 19.625 16.1245 34.3429 15.9503 14.6055 19.6569 17.3917 13.3348 12.9693 12.4516 11.5618 11.5237 11.357 10.0206 9.65976 9.56632 12.036 7.97092 7.92254 7.91548 7.76442 12.9289 14.375 7.61719
threshold=0.032900262810757044 0.023809482694607829 0.023191719948347841 0.014928056015145309 0.070875048450281239 0.14285699713516242 0.018951607719080065 0.06146532897261147 0.062082627059855663 0.14170497181508632 0.58601150294791948 0.10510816827215606 0.082284849279904329 0.17605410901233146 0.063734947688036531 0.13184229761218133 0.069793936403483123 0.10710998882852897 0.1204867495927968 0.040789564112770633 0.19857671689237719 0.083883305873179853 0.095965170738165073 0.15212816266912618 0.086719810271147071 0.087772224779985086 0.1157497799120837 1.0000000180025095e-35 0.13434566423951291 0.097172261908117341
decision_type=2 2 2 2 2 2 2 2 2 2 2 2 2 2 2 2 2 2 2 2 2 2 2 2 2 2 2 2 2 2
left_child=1 2 3 -1 6 16 7 10 19 20 11 12 -5 -8 15 24 21 -18 -3 -9 23 -6 -23 -4 -7 -21 27 -15 -29 -13
right_child=-2 18 9 4 5 14 13 8 -10 -11 -12 29 -14 26 -16 -17 17 -19 -20 25 -22 22 -24 -25 -26 -27 -28 28 -30 -31
leaf_value=-0.0015784033132078068 -0.0019991993761428748 -0.0017516784424495768 -0.0013699539562400179 0.0009184221119116192 0.00062831188753698509 0.016607236174056482 -0.0012995723194290643 0.0031286990760918038 -0.0012899132868477751 0.0056527962729220763 0.002660470134541537 0.0026676667120597328 -0.0016590704391204439 0.00016641552836769223 0.0018457245041349905 -0.00061540169721757871 0.0031012672047180008 0.01164618960251884 0.00092417455675401577 0.0092765570010311105 0.0025049338082070191 -7.9907015325708685e-05 0.0085154590799416032 0.00580488852700592 0.003112010198514514 0.0026470963355108203 -0.0011658543932716329 0.002556812805160685 0.011108263051990768 -0.0033617342563889785
leaf_count=1024 10587 5826 4547 12018 1320 111 2191 375 420 148 2856 3150 1280 662 90 28 292 83 802 390 309 127 150 53 33 121 428 394 101 82
internal_value=0 0.0528743 0.0919194 0.122976 0.133747 0.308613 0.117568 0.142942 0.368286 -0.0800576 0.127401 0.103079 0.0669492 -0.0230126 0.889255 1.1979 0.222909 0.547629 -0.14247 0.597655 -0.101677 0.140935 0.484111 -0.126428 1.41846 0.78623 0.123996 0.213116 0.464608 0.249872
internal_count=49998 39411 32783 27726 26702 2234 24468 20692 1306 5057 19386 16530 13298 3776 262 172 1972 375 6628 886 4909 1597 277 4600 144 511 1585 1157 495 3232
shrinkage=0.01


Tree=24
num_leaves=31
num_cat=0
split_feature=16 75 77 7 73 72 54 17 86 98 17 8 34 98 92 59 79 98 43 10 8 17 34 96 96 77 16 27 31 80
split_gain=179.733 68.5429 40.4778 36.9149 25.355 20.7978 20.5564 20.3032 18.0196 15.7386 12.7163 11.308 9.91893 9.3233 9.01816 8.45753 8.09632 8.06855 7.99773 7.6845 7.76898 7.35831 7.79987 8.00453 6.83909 6.49312 6.21982 6.15186 6.14206 6.6612
threshold=0.021267463992479512 1.0000000180025095e-35 0.16632387335667823 0.23416774233643625 1.0000000180025095e-35 0.069464784488028106 0.068856538349251303 0.57106603538110223 0.028231032436693896 0.43196354769085127 0.059254515810031889 0.11024315927949027 0.17004943703031497 0.064774471271148451 0.069238139952432318 0.042863096788933228 0.085833876797200295 0.37192421315935748 0.063561304629183704 0.13441111215157503 0.054160527995502729 0.019839055299710921 0.043949489561249742 0.10866873589848847 0.51016967630627674 0.22042795479694216 0.19239926003602981 0.10299198793877019 0.060638230559017674 0.079375321443109034
decision_type=2 2 2 2 2 2 2 2 2 2 2 2 2 2 2 2 2 2 2 2 2 2 2 2 2 2 2 2 2 2
left_child=1 3 12 7 6 9 -2 16 10 14 25 -10 17 -12 21 -14 18 -3 24 -16 -21 -4 -23 -24 -1 -7 -8 -18 29 -6
right_child=4 2 5 -5 28 8 26 -9 11 -11 13 -13 15 -15 19 -17 27 -19 -20 20 -22 22 23 -25 -26 -27 -28 -29 -30 -31
leaf_value=-0.0013408908526892432 -5.3968390591912149e-05 0.001288550099322756 0.0018860471729617832 0.0016468594705999109 0.0023148478377879324 -0.00057707523411066296 0.00089150851145070964 -0.00325080283366963 0.00088757732848101416 -0.0066719972789135188 -0.0035982869294251302 -0.0041098321383295318 -0.0023509827268195405 0.002438466724860735 0.00099288523859719755 0.0041797914634006542 -0.0021128094788455134 -0.0029826562339763528 -0.00049487123962405543 4.4305293658574728e-05 -0.0043433545669385402 0.00023770541366745359 -0.0019248955849345954 0.001169682720671565 -0.0040485752686270126 -0.003207596397024589 0.0021531280230038872 -0.0055712958767098241 0.00096573626415139523 0.0011044984528017997
leaf_count=11357 4244 5838 261 955 5836 267 1936 1378 801 73 77 115 312 201 2568 47 887 99 2971 368 121 1049 1363 228 219 1578 1873 139 1450 1387
internal_value=0 -0.0655862 0.0104692 -0.130289 0.131423 -0.0556255 0.0686958 -0.146875 -0.1596 -0.00283101 -0.237288 0.0219699 0.106017 0.0695763 0.00656975 -0.141237 -0.130756 0.121219 -0.121257 0.0653045 -0.111019 -0.0550938 -0.0797434 -0.147741 -0.139553 -0.283355 0.151485 -0.263086 0.189807 0.208394
internal_count=49998 33272 15366 17906 16726 9070 8053 16951 3039 6031 2123 916 6296 278 5958 359 15573 5937 14547 3057 489 2901 2640 1591 11576 1845 3809 1026 8673 7223
shrinkage=0.01


Tree=25
num_leaves=31
num_cat=0
split_feature=68 83 16 30 42 77 63 17 63 50 62 57 69 15 46 95 53 15 17 98 10 89 46 49 49 62 29 30 56 29
split_gain=128.502 56.7487 36.9542 27.3432 23.6089 13.8863 12.5273 8.75521 8.60309 10.4311 7.74486 8.29721 7.49478 7.38581 7.03447 7.02879 6.52632 6.44429 7.02046 5.98286 7.40418 5.89179 5.82056 5.75014 7.97976 5.75917 5.70917 10.9997 6.67028 5.66542
threshold=0.023809482694607829 0.404231425036503 0.11361904576482239 0.097370095899650858 0.097830484698171946 0.20279652711416138 0.10542361469482935 0.20290990810347639 0.10736782982954134 0.28244365053331999 0.17130164212807947 0.29188550147625308 0.20325823440501925 0.083824903915876298 0.30876080738041306 0.29016340791174772 0.04850323181462738 0.10531512588044876 1.0000000180025095e-35 0.084880743446030263 0.1519362700250495 0.12540279264005685 0.086277223690529772 0.13509000438142385 0.10459455083972218 0.076209010320706635 0.038643502802002537 0.047928930874094021 0.099093796521469185 0.039677251548559646
decision_type=2 2 2 2 2 2 2 2 2 2 2 2 2 2 2 2 2 2 2 2 2 2 2 2 2 2 2 2 2 2
left_child=1 2 3 6 7 -6 10 8 9 19 11 17 -4 16 -13 -2 22 18 -1 20 -5 -22 -7 24 -20 -25 27 -19 -29 -10
right_child=15 -3 12 4 5 13 -8 -9 29 -11 -12 14 -14 -15 -16 -17 -18 26 23 -21 21 -23 -24 25 -26 -27 -28 28 -30 -31
leaf_value=0.0027455183644552795 -0.0017293253766726513 0.0036738077874759537 -0.00073884434109390562 0.00095315430296318525 -0.00023397544236988823 0.0082180469612018782 0.0016243337607720501 0.0040823807284223329 -0.00044860159216140484 0.0058224742708685821 -0.00074944979955918678 -0.001327278384804052 -0.002512773936446386 0.0017494750452430375 0.0011333225901389097 0.0069105097702099171 -0.00011840098926837322 0.001423704744153032 0.00029671758944620934 -0.0003492289882248838 -0.00097507699391093789 0.0094393269064571225 0.00081436863786175939 -0.0024716299704595625 0.0032396319606082598 0.00038854843911378028 0.00071396052106473468 0.0084942584676799566 -0.00086603226099454225 0.0044599745367729857
leaf_count=400 12054 1884 4099 2669 160 416 2408 350 103 125 2693 1730 1081 132 530 20 42 531 13848 1474 24 51 44 514 322 472 1281 136 30 375
internal_value=0 0.0536531 0.0367088 0.0613311 0.175502 0.472597 0.0337702 0.128007 0.106225 0.0791402 0.0198681 0.0327527 -0.11116 0.593056 -0.074589 -0.170667 0.694053 0.0465893 0.0336361 0.0620174 0.113669 0.649265 0.75585 0.0269638 0.0366564 -0.111507 0.147554 0.283113 0.68699 0.342252
internal_count=49998 37924 36040 30860 5965 794 24895 5171 4821 4343 22487 19794 5180 634 2260 12074 502 17534 15556 4218 2744 75 460 15156 14170 986 1978 697 166 478
shrinkage=0.01


Tree=26
num_leaves=31
num_cat=0
split_feature=38 88 27 90 10 42 77 9 83 23 81 56 9 15 25 49 78 81 59 28 77 56 15 87 42 83 96 77 83 77
split_gain=114.224 31.7098 34.3602 27.7519 18.4042 24.4928 15.5202 28.8128 14.5887 31.8519 12.5012 11.6034 14.6109 11.382 11.0736 10.5487 14.5223 10.4208 10.6624 10.0616 8.72728 8.63787 8.58456 8.34833 8.05185 7.90185 7.67702 7.44218 7.32937 7.29202
threshold=1.0000000180025095e-35 1.0000000180025095e-35 0.04823812393063389 0.027620987425364205 0.15674769453969242 0.17431597468861063 1.0000000180025095e-35 0.097985055915280464 1.0000000180025095e-35 0.21446578489867871 0.22060814544041008 0.11462638395698203 0.051461704708185563 0.073322298657061122 0.13442847723774062 0.15731394443011351 0.035277935895647546 0.16054146223769897 0.044805152268245101 0.10903695673984448 0.13696205200291109 0.20242061187611313 0.19857671689237719 0.22030853885869858 0.21779198731399932 0.035450862471370408 0.60097540010633754 0.4668816491045748 0.021673621196869306 0.16206176962536858
decision_type=2 2 2 2 2 2 2 2 2 2 2 2 2 2 2 2 2 2 2 2 2 2 2 2 2 2 2 2 2 2
left_child=1 2 6 11 27 -6 8 15 -1 26 -4 22 14 24 -13 17 -17 -8 -19 20 -9 -14 -2 -11 -12 -16 -10 -3 -23 -18
right_child=3 4 10 -5 5 -7 7 19 9 23 13 12 21 -15 25 16 29 18 -20 -21 -22 28 -24 -25 -26 -27 -28 -29 -30 -31
leaf_value=-0.0022780202617829824 -0.00074316074642186147 -0.00042363845574590596 0.0025590961975828414 -0.001736514584792194 0.00028430829093878537 0.01227122469668941 -0.0011261847120127356 -0.00013545496407791932 0.0013355947138147823 0.0043045186074592897 0.011216275284709084 -0.00055658700972357946 0.0024498027728124335 0.0029408743240473762 -0.0022805564138162998 -5.9726701808670162e-05 0.012233552419650871 0.001412981294563434 -0.0014116336769967081 -0.00024917529758052698 0.0059086097123554303 0.00046485862637002699 0.0027483738552787958 0.011019767339705437 -4.6099575321804845e-05 0.010039623964404363 0.0060756024327277697 -0.0025005879078396171 0.011790291010814335 0.0017795528259040591
leaf_count=443 4542 5314 467 14400 230 94 3737 128 13188 229 251 811 234 177 25 229 69 1982 845 221 596 35 321 153 31 61 136 899 96 54
internal_value=0 0.0838386 0.120571 -0.122306 -0.046533 0.429566 0.103496 0.027932 0.145007 0.157132 0.512704 -0.00289658 0.176348 0.75373 0.0272918 -0.0199008 0.325647 -0.0395167 0.0572807 0.369615 0.486857 0.520659 -0.0501687 0.739143 1.00553 0.673853 0.139236 -0.0728769 0.922546 0.848595
internal_count=49998 29473 22936 20525 6537 324 22010 7861 14149 13706 926 6125 1262 459 897 6916 352 6564 2827 945 724 365 4863 382 282 86 13324 6213 131 123
shrinkage=0.01


Tree=27
num_leaves=31
num_cat=0
split_feature=68 16 17 35 19 3 54 74 38 98 35 98 88 80 19 44 79 74 3 3 64 98 80 54 63 10 38 10 96 79
split_gain=276.832 56.3124 32.4899 20.9116 27.3265 24.7984 17.1251 15.7018 12.4489 11.1242 9.61441 9.43536 9.32794 8.97428 8.92464 8.79268 8.53849 8.25179 10.3093 8.20507 8.15672 8.15018 7.79228 7.6981 7.53159 7.46396 7.38915 7.23801 6.99327 6.60304
threshold=0.023809482694607829 0.078552157627035615 0.57106603538110223 0.030369623762390437 0.16917359785180744 0.097223184924715517 0.092163472733434185 0.071679751498396491 1.0000000180025095e-35 0.26712972031984306 0.06415666211511134 0.078373119677100908 0.017991723261261593 0.25391309020838676 0.082176001549892255 0.19067033575527406 0.14950929860711146 0.033192546757218173 0.034080297491640647 0.088241706528922451 0.196154275459305 0.079296364174506348 0.1204867495927968 0.15148507969920597 0.13009227316898148 0.041409212117849141 0.048572165614125369 0.048183240260292116 0.60097540010633754 1.0000000180025095e-35
decision_type=2 2 2 2 2 2 2 2 2 2 2 2 2 2 2 2 2 2 2 2 2 2 2 2 2 2 2 2 2 2
left_child=1 2 3 5 15 7 10 8 9 13 19 -6 29 28 16 17 -9 23 -19 -3 24 -8 -2 -5 27 -11 -24 -7 -1 -10
right_child=22 6 -4 4 11 20 21 14 12 25 -12 -13 -14 -15 -16 -17 -18 18 -20 -21 -22 -23 26 -25 -26 -27 -28 -29 -30 -31
leaf_value=-0.0011499159973974008 0.0021768400528795529 -0.000854190147830541 -0.0032140686684442167 0.00015631272799278932 -0.0046140552090384278 0.0013506930934115324 -0.0004304179048102636 -0.0013109294187424376 -0.0011972746457832504 -0.0014613436866189572 0.0011150443234373502 0.00058147819683072833 -0.00097687101242503586 0.0027970964343933991 -0.0044305221235789571 -0.0022323852065907822 -0.0046397029838346265 0.0020506903464205914 -0.00050577323547470391 0.0014266465974993937 -0.0026049335802829881 0.0020332839193421578 -0.00036815964307954709 -0.0058103763344258853 -0.002549246014481029 -0.0065460791712337084 0.0021925208374334111 -0.0010085282613488734 -0.0044518318895811326 0.00097927914882772488
leaf_count=16682 10990 2316 1378 1617 340 1835 377 1112 415 137 1331 107 2032 128 438 239 214 1559 496 444 180 2140 598 44 148 143 486 368 145 1559
internal_value=0 -0.06471 -0.0919544 -0.0811318 0.017502 -0.0980336 0.0654731 -0.113947 -0.102228 -0.120169 0.00363502 -0.339339 -0.0242859 -0.114959 -0.253691 0.0590481 -0.187983 0.0777814 0.143332 -0.0484463 0.0473966 0.166233 0.205247 -0.00342159 0.0721878 -0.420122 0.0786883 0.0953083 -0.118104 0.0515396
internal_count=49998 37924 31316 29938 4402 25536 6608 23005 21241 17235 4091 447 4006 16955 1764 3955 1326 3716 2055 2760 2531 2517 12074 1661 2351 280 1084 2203 16827 1974
shrinkage=0.01


Tree=28
num_leaves=31
num_cat=0
split_feature=68 26 17 19 30 53 70 55 84 17 69 36 55 70 64 0 31 53 55 85 60 36 87 94 96 17 94 87 76 19
split_gain=126.673 61.4884 60.7384 26.2517 22.3313 13.9162 12.5265 12.5917 10.8042 10.6624 10.4587 8.81312 8.31599 8.03257 8.1209 7.79143 8.64271 7.64943 7.07163 6.9637 6.93894 6.63366 6.61217 6.37437 7.37974 6.1031 5.97853 5.80025 5.36777 5.31647
threshold=0.023809482694607829 0.1793722876544547 0.40234364787587723 0.018805259506165458 0.13085005772410049 0.018897909334351534 0.064118767548510092 0.047309963939394066 0.097817976497509493 0.20290990810347639 0.057846971437950277 0.075178981514667106 0.11104379092290399 0.04936702294473936 0.20643676119361279 0.054701399237322389 0.15440125365518931 0.090356721030386694 0.04891509159997625 0.078163886911499572 0.13235760264879445 0.057638697857503467 0.082540251461246605 0.10265019861945505 0.10798462371419806 0.03775857936314396 0.10639135986415323 0.20748004734673378 0.12512826739604374 0.066633991681536303
decision_type=2 2 2 2 2 2 2 2 2 2 2 2 2 2 2 2 2 2 2 2 2 2 2 2 2 2 2 2 2 2
left_child=1 2 4 -3 5 8 9 -8 11 18 -7 13 17 15 -15 16 19 23 -6 20 -1 -22 -13 24 -5 -18 -19 -17 -21 -30
right_child=-2 3 -4 12 6 10 7 -9 -10 -11 -12 22 -14 14 -16 27 25 26 -20 28 21 -23 -24 -25 -26 -27 -28 -29 29 -31
leaf_value=0.0005122222600834705 -0.0016963826566517883 0.00099585108706047544 0.0035466997909878229 0.0074579590358838212 0.0010677847448554425 -0.00018976617779722121 -6.3544419371184033e-05 0.0059957815319153793 -0.0012889775550918125 0.0040466723133033905 -0.0022666126143098459 -0.00039834618364950256 0.0011441354397321317 0.0012711815340489775 0.0068434508275255915 -0.0015301343526288977 0.0082621199182854235 -0.0017645269744725337 -0.0011891513349847119 -0.0020138427394836671 -0.0016249643155318012 0.005411298899257109 -0.0029787260651971581 0.0028899984429222171 0.0028464382695844023 0.0019291170773087464 0.005210371162257893 0.00013415670310059646 0.00738259073719602 -0.0026578331549986455
leaf_count=14719 12074 1012 1901 752 2802 1840 180 355 1835 350 1641 2412 190 1473 86 1396 59 88 588 636 808 37 404 229 172 264 62 1579 32 22
internal_value=0 0.0532163 0.0328768 0.336188 0.0139552 -0.00473909 0.140634 0.404638 0.0103464 0.100994 -0.116925 0.0210389 0.4922 0.0342121 0.163939 0.0237836 0.0396929 0.544832 0.0675193 0.0334684 0.0416818 -0.123309 -0.0781623 0.596024 0.665631 0.338206 0.132182 -0.0649642 -0.150794 0.359985
internal_count=49998 37924 35419 2505 33518 29243 4275 535 25762 3740 3481 23927 1493 21111 1559 19552 16577 1303 3390 16254 15564 845 2816 1153 924 323 150 2975 690 54
shrinkage=0.01


Tree=29
num_leaves=31
num_cat=0
split_feature=75 2 98 27 27 3 49 82 90 35 3 72 89 23 87 10 80 98 17 98 16 26 74 10 74 90 89 88 56 55
split_gain=133.279 43.2835 40.5712 20.7569 20.7505 16.9159 14.9335 21.7171 14.8818 14.9465 14.3484 12.9266 12.8356 22.9777 11.9792 11.3813 10.6761 9.83221 9.10036 8.9638 12.8616 7.49471 7.38804 8.56574 8.85142 7.14183 6.59277 6.59221 6.57948 6.50697
threshold=1.0000000180025095e-35 0.032900262810757044 0.41365738759755105 0.047377379617816136 0.04491264561119989 0.053272600638207976 0.14285699713516242 0.085283981896220953 0.040924477121609439 0.033117924557115749 0.083150549148501146 0.13737537048047005 0.049396998634177923 0.22196348067292154 0.21156274719463339 0.055512773153386909 0.068980358724811827 0.19136908250690696 0.1133471959042337 0.037860544566396349 0.15358919456278405 0.13644471687860368 0.14842452071303441 0.049531738876769538 0.044352927811803187 0.053452875826263076 0.42119299580677444 0.064542405239294817 0.03258176699175528 0.057668468356076884
decision_type=2 2 2 2 2 2 2 2 2 2 2 2 2 2 2 2 2 2 2 2 2 2 2 2 2 2 2 2 2 2
left_child=4 2 3 8 6 -5 12 18 9 10 11 16 -1 17 -15 -4 21 -14 -8 20 -12 -2 23 -18 29 -6 -21 -7 -19 -25
right_child=1 -3 15 5 25 27 7 -9 -10 -11 19 -13 13 14 -16 -17 22 28 -20 26 -22 -23 -24 24 -26 -27 -28 -29 -30 -31
leaf_value=-0.0015692560884596426 0.00086984278751776401 -0.0020188023509509494 0.00061085189967205423 0.0028948491640919793 0.0016431487865489487 0.0017841960747489256 0.0092512639256637896 -0.00071660545630780224 -0.0017845290746576639 -0.0013490338345025139 -0.0016929127044111678 -0.0019631656356084402 0.0012138714235000135 0.0029955467789613255 0.0097028693426659558 0.010866045380370323 0.0012686335172535487 -0.0019490120435383892 -0.0018344310493253935 -0.0022251953513696839 0.012244122193041376 -0.0019110354585541529 -0.00091098237509330566 0.01078590411795821 0.0029500303307573601 0.0079263661349138863 0.0047082892419863355 -0.001201453021436348 0.0019868857994891891 0.0020945760476612746
leaf_count=752 3523 10474 69 1370 128 454 270 198 4388 4202 63 699 17082 362 172 156 471 734 31 1468 32 479 200 142 372 257 48 1100 238 64
internal_value=0 -0.0909958 -0.0316185 -0.0428046 0.13139 0.120608 0.121602 0.473981 -0.072738 -0.0333853 0.0228507 0.0708171 0.112003 0.122874 0.543508 0.811187 0.106976 0.109722 0.809087 -0.153947 0.424594 0.0529754 0.276353 0.346242 0.515007 0.602348 -0.195251 -0.0314421 -0.0961712 0.850689
internal_count=49998 29774 19300 19075 20224 2924 19839 499 16151 11763 7561 5950 19340 18588 534 225 5251 18054 301 1611 95 4002 1249 1049 578 385 1516 1554 972 206
shrinkage=0.01


Tree=30
num_leaves=31
num_cat=0
split_feature=62 26 2 72 92 17 9 98 27 49 1 72 60 1 17 27 56 98 42 92 26 64 48 49 50 17 56 34 74 49
split_gain=147.53 66.9462 51.1374 40.2704 30.7703 27.4039 19.4202 16.111 15.9947 15.4018 14.5308 15.511 13.5993 13.0848 12.4023 11.7305 11.2786 10.9 10.4534 18.3524 9.70724 11.5422 9.59358 9.06343 8.87401 8.49469 9.41597 8.00828 7.51708 7.33249
threshold=1.0000000180025095e-35 0.17294566673602005 0.031836869421797566 0.061935583316723504 0.057462586367305633 0.57106603538110223 0.070603966562620413 0.41365738759755105 0.0504683081901122 0.18190095446573243 1.0000000180025095e-35 0.019131166765075903 0.085675465833652611 0.034804674215856132 0.048835373173227004 0.047377379617816136 0.19072615506377397 0.20383513302659298 0.065175641020558298 0.10314913380609521 0.10497958886675764 0.074809028586236129 0.088447586102115394 0.096875133568607788 0.067412612002272096 0.13630725744522501 0.098403589787729548 0.053507321482299759 0.097099710279460336 0.057166808772820037
decision_type=2 2 2 2 2 2 2 2 2 2 2 2 2 2 2 2 2 2 2 2 2 2 2 2 2 2 2 2 2 2
left_child=5 2 4 -3 6 12 8 10 9 20 11 -6 18 -8 -9 29 22 27 23 24 -2 -22 -13 25 -20 26 -1 -4 -17 -12
right_child=1 3 17 -5 7 -7 13 14 -10 -11 15 16 -14 -15 -16 28 -18 -19 19 -21 21 -23 -24 -25 -26 -27 -28 -29 -30 -31
leaf_value=-0.00052821209482384736 0.00077340948549636584 0.0004744183631979222 0.001811454693729563 -0.0035392919440263571 0.00081617603896228961 -0.0032007751824454159 -0.0031458352854062152 -0.0054943440599724705 -0.0025402047579037891 -0.0016291054892735705 0.0019062173612179013 -0.0015037052374724713 0.0010002290193202997 -0.00042761785635565933 0.0021752663309431313 0.00048939912016879468 -0.0060524103571038155 0.0023786929237418035 -0.0025029449219555189 0.0023189589377055932 0.00045556153057120112 -0.0040273595496230644 0.0026503098248573547 -0.0035770839472359494 0.0026019106894928797 -0.0016030579040840558 -0.0016987405161829631 0.00068166522267471604 -0.003030334727300645 0.00029953872028085039
leaf_count=6773 5005 1038 3516 1388 3117 1375 848 150 518 884 5096 774 805 843 67 729 100 3884 453 570 336 220 152 353 91 5097 2153 2698 171 794
internal_value=0 0.0624566 0.0826936 -0.183645 0.0370217 -0.113132 -0.032106 0.0909774 0.00413299 0.0253854 0.0994634 0.0270426 -0.0952391 -0.180201 -0.315646 0.143696 -0.137076 0.172946 -0.105378 0.0388737 0.0556885 -0.1365 -0.0804004 -0.116487 -0.16235 -0.110166 -0.0812673 0.132215 -0.0208172 0.168967
internal_count=49998 32328 29902 2426 19804 17670 8654 11150 6963 6445 10933 4143 16295 1691 217 6790 1026 10098 15490 1114 5561 556 926 14376 544 14023 8926 6214 900 5890
shrinkage=0.01


Tree=31
num_leaves=31
num_cat=0
split_feature=68 89 89 59 19 31 23 89 70 58 56 81 19 56 89 91 57 92 88 58 39 88 39 43 89 71 56 73 75 94
split_gain=124.436 28.236 25.7994 24.5205 30.2137 16.0428 17.2723 14.4515 12.6538 11.8007 9.28236 8.89758 7.87462 6.2125 5.8337 5.72233 7.29479 5.98347 8.60201 5.6811 5.66938 5.6592 5.77348 5.66605 5.62218 5.7439 5.61224 6.76654 5.34256 7.82078
threshold=0.023809482694607829 0.5733558899949448 0.57842986598461876 0.053476803531929552 0.062690896900789231 0.17099879841215848 0.28343375898836937 0.20533055176078951 0.061553589359051385 0.14388206961560959 0.029112532360278786 0.41399908068709074 0.1134168717369884 0.042055561108703884 0.25868484760196608 0.12799915436754367 0.29322125184183928 0.16001022950127999 0.17936862289309843 0.24728783981324856 0.070988872990814397 0.024953071246929904 0.05573445156967622 0.14258212635313436 0.13742881127940509 0.034825702094507499 0.07718587442101317 0.029037140544670281 0.17892726530120226 0.10517121127423981
decision_type=2 2 2 2 2 2 2 2 2 2 2 2 2 2 2 2 2 2 2 2 2 2 2 2 2 2 2 2 2 2
left_child=1 3 -3 5 14 6 7 10 9 13 15 -9 -12 21 -5 16 17 18 -1 -14 -10 23 -23 -6 -8 -26 27 -16 -20 -30
right_child=-2 2 -4 4 8 -7 24 11 20 -11 12 -13 19 -15 26 -17 -18 -19 28 -21 -22 22 -24 -25 25 -27 -28 -29 29 -31
leaf_value=0.00027628369654712287 -0.0016836761986483565 0.0039781487476479053 0.00092732843449374941 -0.0003037820477478301 0.0052892714165334344 0.0018206719233784213 0.0051544039585593292 0.00035253684439145788 -0.0012326692251638017 -0.0010235914202473056 -0.0014497515515766298 0.0053150786408412603 0.0027653997093001815 0.0054620225657011278 0.0013373339936716764 -0.0013718564443122919 -0.0012669752382902008 -0.0011086351578985124 0.0013473820583636738 -0.0019476374839862169 0.0063104859094004788 0.0042685293490302154 -0.0013591383952430433 -0.0029509095252160189 0.00058319634175392932 0.0057899798746979883 -0.0016885678585067336 0.0062958055973770704 0.0079840967971739254 -0.00033087253972341669
leaf_count=5474 12074 1410 2986 1624 195 1887 241 13191 33 267 3953 115 273 322 384 1158 1273 944 347 122 531 77 209 25 389 80 121 123 113 57
internal_value=0 0.0526781 0.193129 0.0338688 0.173429 0.0152476 0.00370442 -0.00403433 0.362886 0.239253 -0.0470998 0.0401192 -0.119341 0.347613 0.0296606 -0.0136782 0.00389927 0.0280277 0.0499993 0.130772 0.586074 0.207752 0.0282253 0.423585 0.289865 0.161326 0.181876 0.267694 0.278419 0.53935
internal_count=49998 37924 4396 33528 3911 29617 27730 27020 1659 1095 13714 13306 4348 828 2252 9366 8208 6935 5991 395 564 506 286 220 710 469 628 507 517 170
shrinkage=0.01


Tree=32
num_leaves=31
num_cat=0
split_feature=2 35 12 30 98 65 27 9 33 23 18 47 12 76 81 9 17 81 44 28 81 28 86 76 39 9 11 23 81 33
split_gain=113.628 50.1925 31.2873 21.6941 18.725 15.4221 15.2896 14.7305 18.4375 12.0509 21.7089 11.2471 10.3065 9.20716 8.66994 8.61789 13.3441 12.011 10.1357 8.54865 8.23853 14.9445 12.9623 17.4911 14.2359 9.63782 9.84282 9.77032 8.13085 7.82993
threshold=0.032900262810757044 1.0000000180025095e-35 0.1687963620720126 0.059907862537861678 0.41365738759755105 0.052551376052548178 0.062675464717854706 0.097295226621066697 0.1122977172867206 0.23394048425634775 0.15157839713987217 0.30548053715049345 0.1020367267770084 0.28612890086288412 0.1315028809150601 0.072223425156912213 0.067700779559887833 0.2670202341428653 0.060619733271583827 0.071876821258755205 0.23010352565713352 0.023476459091265028 0.067134952195939207 0.065016221476521266 0.043543359274980604 0.034186363404987465 0.15023709502221835 0.046613236973778505 0.13030426975329745 0.10604172059279059
decision_type=2 2 2 2 2 2 2 2 2 2 2 2 2 2 2 2 2 2 2 2 2 2 2 2 2 2 2 2 2 2
left_child=1 2 3 5 6 7 -4 9 -9 20 -11 -6 -3 15 -8 -5 17 29 -19 -14 21 22 24 -24 -1 27 -27 -22 -12 -17
right_child=-2 12 4 13 11 -7 14 8 -10 10 28 -13 19 -15 -16 16 -18 18 -20 -21 25 -23 23 -25 -26 26 -28 -29 -30 -31
leaf_value=0.0012217257741466462 -0.0019715090866398448 -0.0014096236253045892 0.0013937751775822602 -0.00066839513322824995 0.012988673725488176 -0.0011694217503876033 -0.00024917705320917909 0.002025504078590585 0.0081251868549497858 -0.00010114179710557314 0.008940501248803235 -0.0020261336855187757 -0.0012362802842978678 0.007243820472109243 0.0072257579441116883 0.00051994241846626372 -0.0010880869256790276 0.011513768288527949 0.0016445333142832187 0.0027140900882521215 0.002342085612644703 -0.00039988932966305126 0.00093460916906681066 0.011536784807743467 -0.0013511164300348906 0.0069654856868649273 -0.0020235273244189377 -0.0021677929015194038 -0.00024367862691737218 0.0057760542591627322
leaf_count=12554 10587 6214 981 6183 110 1305 80 1096 261 317 262 20 435 55 385 779 819 91 93 525 1126 3647 166 103 1028 285 58 251 49 133
internal_value=0 0.051817 0.0871054 0.0719673 0.373395 0.105596 0.294559 0.119224 0.330403 0.104483 0.386589 1.07214 -0.109154 -0.0216891 0.598189 -0.0284005 0.0951017 0.245626 0.712967 0.0936712 0.0948116 0.0809923 0.112286 0.555443 0.102787 0.233832 0.542535 0.150886 0.758616 0.139147
internal_count=49998 39411 32237 30661 1576 22508 1446 21203 1357 19846 628 130 7174 8153 465 8098 1915 1096 184 960 19218 17498 13851 269 13582 1720 343 1377 311 912
shrinkage=0.01


Tree=33
num_leaves=31
num_cat=0
split_feature=68 16 17 20 22 12 90 57 35 19 6 46 3 22 9 77 21 9 46 19 54 81 54 35 9 96 42 35 3 73
split_gain=269.106 54.6989 31.0025 22.203 19.4396 17.9826 21.4301 15.414 17.2456 21.0721 12.9737 12.9434 12.1741 9.71014 9.02829 8.95271 8.57251 8.29617 8.19911 7.65195 7.36201 7.11168 6.97748 8.50005 6.91901 7.64924 6.46183 6.24409 7.18187 6.21182
threshold=0.023809482694607829 0.078552157627035615 0.57106603538110223 0.10222508543924715 0.025370826987848902 0.18520670882474186 0.092672497907332688 0.29188550147625308 0.031899594584245211 0.16917359785180744 0.15147401664766921 0.30876080738041306 0.11459547857903424 0.03001280660575335 0.082145499911312189 0.24855787219981104 0.38964430921455462 0.078333731753190181 0.04248872831115607 0.11400762951042089 0.19687045962076447 0.18341964022939536 0.07791682882972166 0.081246369315994757 0.067164235863240954 0.15304271788000826 0.20654947940304499 0.13812282152253721 0.028417983910005235 0.04851967045816994
decision_type=2 2 2 2 2 2 2 2 2 2 2 2 2 2 2 2 2 2 2 2 2 2 2 2 2 2 2 2 2 2
left_child=1 2 3 5 17 6 7 8 10 13 12 16 19 -10 29 -8 -9 22 -11 -1 -6 -7 23 -3 26 -26 -12 28 -19 -5
right_child=-2 4 -4 14 20 21 15 11 9 18 24 -13 -14 -15 -16 -17 -18 27 -20 -21 -22 -23 -24 -25 25 -27 -28 -29 -30 -31
leaf_value=-0.0011679919270638898 0.0020268079742321184 -0.0010679197913069246 -0.00314160771884971 0.00044382671580861429 0.0011759270962868348 -0.0014757764389900067 0.0011581644210165692 -0.00033733289425216107 0.0010295390813929506 -0.0043702253010616541 -0.0014477215630366894 -0.0018654826220885895 0.00070197995208928624 -0.00082604266834224063 -0.0014019049188619818 -0.0011225652415098749 0.0017762468574893655 -0.0034427138894050848 0.0018856837863569329 -0.0029252848027342504 0.0034918719595092647 -0.0044334914646703902 0.0014593364911483862 0.0014967245156994225 -0.0029992546961050913 -0.0082127882635087048 -0.0058657163669090405 0.0024359343175274508 -0.00020048209438745096 0.0022764023497475454
leaf_count=15150 12074 1143 1378 1332 3220 353 1687 834 1892 322 1329 549 810 1044 426 538 1002 398 53 609 367 454 716 416 745 69 75 72 276 665
internal_value=0 -0.0637219 -0.0905397 -0.0799538 0.0646498 -0.0923925 -0.0854296 -0.0985512 -0.111256 -0.0080732 -0.129274 0.0194364 -0.114318 0.0368225 0.0621248 0.060218 0.0818239 -0.0267812 -0.34648 -0.123761 0.141993 -0.317508 0.0199191 -0.0381251 -0.24002 -0.353201 -0.172423 -0.167306 -0.213901 0.1059
internal_count=49998 37924 31316 29938 6608 27515 26708 24483 22098 3311 18787 2385 16569 2936 2423 2225 1836 3021 375 15759 3587 807 2275 1559 2218 814 1404 746 674 1997
shrinkage=0.01


Tree=34
num_leaves=31
num_cat=0
split_feature=68 26 89 19 65 89 8 65 23 95 89 55 89 26 50 47 98 7 96 52 60 95 77 11 20 85 96 81 89 89
split_gain=122.612 59.9889 36.3279 25.4309 17.7658 17.431 16.4958 17.043 16.5204 16.4917 11.6483 9.35618 8.79617 8.37603 11.6515 8.3673 8.3172 8.08138 7.73174 7.52646 7.45165 6.97029 6.85102 7.94299 7.29062 6.50949 6.39452 6.28051 6.26283 8.87582
threshold=0.023809482694607829 0.1793722876544547 0.52664008398444218 0.018805259506165458 0.27386032412020939 0.57842986598461876 0.047062458069881068 0.35965567401498028 0.15912113211990914 0.16804211889556345 0.2143921081429018 0.11104379092290399 0.5733558899949448 0.057823683010764355 0.10081018997719521 0.038813178395275899 0.14431651235037499 0.44472204756906752 0.11614320212096037 0.11958702628438737 0.10706023051069664 0.29016340791174772 0.18951919943331821 0.073951402342515918 0.085181691255658484 0.056756836072855053 0.51016967630627674 0.25397768270785981 1.0000000180025095e-35 0.26342379902016344
decision_type=2 2 2 2 2 2 2 2 2 2 2 2 2 2 2 2 2 2 2 2 2 2 2 2 2 2 2 2 2 2
left_child=1 2 6 -3 11 12 7 8 9 10 13 18 -4 26 19 -11 -8 -18 -5 -15 -12 -2 -17 24 27 -16 -1 -24 -10 -30
right_child=21 3 5 4 -6 -7 16 -9 28 15 20 -13 -14 14 25 22 17 -19 -20 -21 -22 -23 23 -25 -26 -27 -28 -29 29 -31
leaf_value=-0.00066390368986076473 -0.001695922901398513 0.00098146944475060332 0.00098682045377450692 0.0066829683079556437 -0.0020657700225356927 0.00090524883057404389 -0.00017920407976076597 -0.0019340092222932741 0.0056459409724134227 0.00080844723087942366 0.00064460823449491358 0.0013460232365407343 0.0039270202763404113 0.001090736337061259 -0.0014319321185276429 -1.9002050368561114e-05 -0.0018593304195655344 0.007199648816586194 0.0024419356808714878 0.00471658984996108 -0.0016207347695100563 0.0069038238209541171 0.0060976389166176072 -0.0018382949547521164 -0.001181847176156671 0.0021688666023708418 0.0069544451675357865 6.2543965662404085e-05 0.00066905336085533332 0.0037871160159220012
leaf_count=8274 12054 1012 492 993 115 2956 2580 1183 157 1211 9943 184 1407 699 828 183 2348 22 201 274 532 20 490 66 62 215 25 70 906 496
internal_value=0 0.0522374 0.0321221 0.331051 0.483871 0.181801 0.00781858 0.0270022 0.0377001 0.0248171 0.00870813 0.541714 0.319602 -0.0363608 0.0723657 0.183729 -0.0921436 -0.173166 0.600976 0.218353 0.0528157 -0.16732 0.322589 0.406657 0.471176 -0.066895 -0.0628795 0.537185 0.224198 0.180107
internal_count=49998 37924 35419 2505 1493 4855 30564 25614 24431 22872 20790 1378 1899 10315 2016 2082 4950 2370 1194 973 10475 12074 871 688 622 1043 8299 560 1559 1402
shrinkage=0.01


Tree=35
num_leaves=31
num_cat=0
split_feature=75 2 36 77 36 10 6 75 5 70 5 46 73 73 71 73 10 79 59 77 8 37 79 29 16 63 77 39 10 27
split_gain=129.549 42.2682 48.7501 48.8678 27.9778 18.3789 14.0817 13.5248 12.3478 11.8194 17.0681 14.1159 10.929 10.3244 9.60078 8.81509 8.68483 14.2826 14.2373 9.61332 9.47066 11.1926 7.82268 11.198 7.80267 7.98287 7.10583 6.88324 6.6894 6.43179
threshold=1.0000000180025095e-35 0.032900262810757044 0.035194353090341225 0.43163574570423108 1.0000000180025095e-35 0.053709889765082404 0.16698312636273399 0.095848817526912544 0.032653322256969645 0.059564037843376862 0.072722012440441325 0.059712750333230348 0.065827748652554238 0.04372907332752575 0.11815093057717445 0.032817067042077243 0.089891775628170564 0.17740202058754465 0.075852260221269549 0.35942786271153582 0.030794380766958722 0.070624647141643529 0.081579552528136881 0.037554500105486464 0.17189749652935668 0.075419730006571137 0.45135147130725195 0.19126373106586828 0.080627545804043202 0.05329996550310085
decision_type=2 2 2 2 2 2 2 2 2 2 2 2 2 2 2 2 2 2 2 2 2 2 2 2 2 2 2 2 2 2
left_child=4 2 6 5 9 -4 29 16 -7 10 13 14 -13 22 -12 -5 17 -8 -18 -20 21 -19 23 27 25 -10 28 -1 -25 -2
right_child=1 -3 3 15 -6 8 7 -9 24 -11 11 12 -14 -15 -16 -17 18 20 19 -21 -22 -23 -24 26 -26 -27 -28 -29 -30 -31
leaf_value=0.0014794649174217232 -0.0011759430436654025 -0.0019979184626469897 0.0026514492281380004 0.0038760198982166019 0.0063335784226708101 0.0039396197840229769 -0.00012633896189826821 -0.00090428890515137741 0.012189924198623612 -0.0011709851650762593 0.00098273969684688775 0.0019193734118245775 0.01092188223738293 -0.0011859063381966675 0.0080582441699615804 -0.0022595079136715204 0.0017365595242630836 -0.0013562777904070802 0.012261530130155338 -0.0003036019017723769 -0.00033886908112625111 0.01358572692981495 0.0032162687647327112 -0.00044562137775420638 -1.8940219412808843e-05 0.0014320074600592547 0.0045324501013622714 -0.0020927821945007576 0.003569307348637963 0.00024231087709904035
leaf_count=12927 12159 10474 829 104 452 297 1020 1499 268 912 513 100 167 805 85 775 364 26 101 34 59 69 840 2886 31 40 130 229 178 1625
internal_value=0 -0.0898939 -0.031276 0.252251 0.129276 0.482022 -0.0713311 0.0557174 0.74363 0.117022 0.12825 0.413476 0.795962 0.114083 0.220316 -0.145627 0.185464 0.08311 0.413938 0.949713 0.643593 0.998544 0.124912 0.11451 1.00773 1.10029 0.00250253 0.141493 -0.0191815 -0.100771
internal_count=49998 29774 19300 2344 20224 1465 16956 3172 636 19772 18860 865 267 17995 598 879 1673 1174 499 135 154 95 17190 16350 339 308 3194 13156 3064 13784
shrinkage=0.01


Tree=36
num_leaves=31
num_cat=0
split_feature=16 93 65 7 33 62 73 17 23 54 76 20 86 1 58 23 91 96 17 32 35 18 76 93 22 69 76 1 2 81
split_gain=169.058 60.8568 56.6969 39.5329 25.8213 27.8408 24.1651 19.7562 21.5838 19.6842 17.571 14.1851 11.65 11.4646 11.4629 10.645 9.94949 9.32973 7.92629 7.45913 7.30778 7.27132 7.20938 8.28727 7.03044 6.96373 6.72387 7.10286 6.67173 6.5284
threshold=0.021267463992479512 1.0000000180025095e-35 0.079378491595209141 0.20894608422857813 0.048862741599384696 0.094745509187542237 1.0000000180025095e-35 0.57106603538110223 0.20546053839594094 0.068856538349251303 0.034123539559582666 0.063744554652268068 0.028231032436693896 0.18317912946914441 0.24515833556533237 0.1552834130559716 0.10246517966961836 0.60097540010633754 0.053905329042465006 0.043939037945317685 0.066584212825426134 0.20149510259508877 0.11203476404509048 0.023205740880577443 0.074333612916240313 0.12396998130103942 0.13097531715132973 0.031955679122680457 0.060043083909683381 0.20997607262155213
decision_type=2 2 2 2 2 2 2 2 2 2 2 2 2 2 2 2 2 2 2 2 2 2 2 2 2 2 2 2 2 2
left_child=1 2 3 4 5 7 9 8 17 15 -3 18 26 14 -7 20 -13 29 28 -16 -2 -10 -8 24 -24 -11 -12 -28 -6 -1
